466 100
학교 -0.00053622725 0.00023643016 0.0051033497 0.009009273 -0.0093029495 -0.007116809 0.0064588715 0.008972988 -0.005015428 -0.003763373 0.0073805046 -0.0015334726 -0.0045366143 0.0065540504 -0.0048601604 -0.0018160177 0.0028765798 0.0009918738 -0.008285215 -0.009448819 0.007311766 0.005070262 0.0067576934 0.00076286553 0.0063508893 -0.0034053659 -0.00094640255 0.0057685734 -0.0075216386 -0.003936105 -0.007511582 -0.00093004224 0.009538119 -0.007319167 -0.0023337698 -0.0019377422 0.008077435 -0.005930896 4.5161247e-05 -0.004753735 -0.009603551 0.005007293 -0.008759587 -0.0043918253 -3.5099984e-05 -0.00029618264 -0.00766124 0.009614741 0.0049820566 0.009233143 -0.008157918 0.004495797 -0.0041370774 0.0008245349 0.008498618 -0.004462178 0.0045175003 -0.0067869616 -0.0035484887 0.009398508 -0.0015776539 0.00032137157 -0.00414063 -0.007682688 -0.0015080094 0.0024697948 -0.0008880281 0.0055336617 -0.002742977 0.0022600652 0.0054557943 0.008345952 -0.0014537406 -0.009208143 0.004370551 0.00057178497 0.0074419067 -0.0008132839 -0.0026384138 -0.008753009 -0.0008565569 0.002826562 0.005401428 0.0070526553 -0.005703123 0.0018588186 0.006088862 -0.0047980524 -0.0031072616 0.0067976285 0.0016314745 0.00018991709 0.0034736372 0.0002177763 0.009618826 0.005060604 -0.008917391 -0.0070415614 0.0009014559 0.006392534
학생 -0.0086196875 0.003665738 0.0051898835 0.005741937 0.007466917 -0.0061676763 0.0011056137 0.0060472824 -0.0028400517 -0.0061735227 -0.000410223 -0.00836895 -0.005600014 0.0071045374 0.0033525396 0.0072256685 0.0068002464 0.007530742 -0.0037891555 -0.00056180713 0.0023483753 -0.0045190332 0.008388732 -0.009858165 0.006764641 0.0029144168 -0.004932833 0.004398186 -0.0017395759 0.006711383 0.00996485 -0.004362445 -0.000599339 -0.0056956387 0.0038508223 0.0027866268 0.0068910765 0.0061010956 0.009538496 0.009273417 0.007898068 -0.006989505 -0.009155865 -0.0003557539 -0.003099842 0.007894316 0.005938573 -0.0015456629 0.0015109634 0.0017900396 0.007817571 -0.009510188 -0.00020553112 0.0034691954 -0.00093897345 0.008381772 0.009010782 0.006536505 -0.00071162224 0.007710404 -0.008534336 0.0032071066 -0.004637997 -0.0050889566 0.0035896183 0.005370338 0.007769513 -0.0057665063 0.0074333595 0.006625495 -0.0037098003 -0.008745641 0.0054374672 0.006509755 -0.0007875514 -0.006709857 -0.0070859264 -0.0024970602 0.0051432536 -0.0036652375 -0.00937006 0.0038267397 0.004884479 -0.0064285635 0.0012085581 -0.0020748782 2.4402141e-05 -0.009883509 0.0026920033 -0.0047501065 0.0010876465 -0.0015762257 0.002196672 -0.007881577 -0.002717185 0.0026631975 0.005346682 -0.0023915148 -0.009510095 0.0045058774
글 9.456396e-05 0.0030773187 -0.0068126465 -0.0013754654 0.007668581 0.0073464084 -0.0036732983 0.0026427007 -0.00831713 0.0062054847 -0.0046373224 -0.003164108 0.009311357 0.0008733845 0.0074907015 -0.006074064 0.005160506 0.009922821 -0.0084573915 -0.0051356913 -0.0070648384 -0.0048626517 -0.003778565 -0.008536201 0.007955606 -0.004843938 0.008423612 0.0052625705 -0.006550026 0.00395787 0.0054701497 -0.007426536 -0.0074057197 -0.0024752307 -0.008625727 -0.0015815735 -0.00040343284 0.0032996845 0.0014418793 -0.00088142155 -0.005594058 0.0017303658 -0.0008973718 0.00679369 0.003973589 0.0045294715 0.0014343048 -0.0026998566 -0.0043668128 -0.0010320758 0.0014370275 -0.00264601 -0.007073784 -0.007805307 -0.009121788 -0.0059351707 -0.0018474245 -0.0043238713 -0.0064606713 -0.0037173224 0.004289157 -0.0037390448 0.008378174 0.0015339922 -0.0072423196 0.0094337985 0.007631211 0.005493281 -0.0068488456 0.0058226776 0.0040090918 0.005185368 0.0042559 0.0019397545 -0.0031701636 0.008353843 0.009612178 0.003792603 -0.002836995 7.126331e-06 0.0012188172 -0.008458326 -0.008223946 -0.00023101569 0.0012372875 -0.005743382 -0.004725275 -0.0073460746 0.008328614 0.00012129784 -0.0045093987 0.005701704 0.009180014 -0.004099872 0.00796468 0.005375433 0.005879123 0.0005125904 0.008213084 -0.0070190406
거 -0.008242679 0.009299355 -0.00019766092 -0.0019672776 0.004603629 -0.004095316 0.002743113 0.0069399667 0.006065426 -0.0075107957 0.00938235 0.0046718074 0.003966119 -0.0062435055 0.008459978 -0.002150166 0.008825188 -0.0053620026 -0.008129421 0.0068245577 0.0016711927 -0.00219851 0.0095136 0.009493854 -0.009774048 0.0025052286 0.0061566923 0.0038724565 0.002022786 0.0004305005 0.0006736302 -0.0038206363 -0.0071402504 -0.0020888734 0.0039238976 0.008818683 0.00925915 -0.005975938 -0.009402671 0.009764376 0.0034297847 0.0051661157 0.006282344 -0.0028042626 0.0073227026 0.0028302716 0.0028710032 -0.002380371 -0.0031282497 -0.0023701428 0.0042764354 7.605791e-05 -0.009584279 -0.009665544 -0.0061481954 -0.0001285696 0.001997416 0.0094319675 0.00558435 -0.0042906976 0.00027831554 0.0049643586 0.0076983096 -0.0011442233 0.0043234206 -0.0058143805 -0.00080419064 0.00810005 -0.002360065 -0.009663455 0.0057792594 -0.0039298222 -0.0012228728 0.0099805165 -0.0022563506 -0.004757066 -0.0053293873 0.006980889 -0.0057088733 0.0021136617 -0.005255661 0.006120713 0.0043573068 0.0026063537 -0.0014910841 -0.0027460647 0.008992936 0.0052157734 -0.0021625208 -0.00947031 -0.007426052 -0.0010637427 -0.00079494715 -0.0025629092 0.00968272 -0.00045852186 0.005873761 -0.0074475883 -0.002506075 -0.005549865
신청 -0.007139015 0.0012410306 -0.0071767163 -0.002244618 0.0037193035 0.005833123 0.0011981821 0.0021027303 -0.0041103913 0.0072253323 -0.0063070417 0.0046472144 -0.008219974 0.0020364665 -0.004977052 -0.004247689 -0.0031089855 0.0056552077 0.0057983994 -0.004974649 0.00077332975 -0.008495779 0.0078098057 0.0092572905 -0.0027423287 0.0008002233 0.0007466507 0.005477884 -0.008606079 0.0005844545 0.006869421 0.0022315932 0.0011246753 -0.009322157 0.008482366 -0.0062641287 -0.0029923748 0.0034937859 -0.00077262876 0.0014112901 0.0017819905 -0.0068288995 -0.009724813 0.009040585 0.0061980532 -0.0069129276 0.0034034825 0.00020606279 0.0047537447 -0.0071199443 0.004026954 0.0043474343 0.0099573685 -0.004473741 -0.0013892651 -0.0073173214 -0.00969783 -0.009080257 -0.0010227561 -0.006503291 0.0048497273 -0.0061640264 0.0025191857 0.0007394409 -0.0033921553 -0.0009792233 0.009979124 0.009145887 -0.0044618296 0.009083025 -0.005641763 0.005930922 -0.0030972194 0.0034317516 0.0030172253 0.006900461 -0.0023738837 0.008775037 0.007589428 -0.009547646 -0.008008211 -0.0076378966 0.0029232574 -0.0027947235 -0.0069295214 -0.008128264 0.008309178 0.0019904876 -0.009328017 -0.0047927164 0.0031367373 -0.004713206 0.005280843 -0.0042334413 0.0026417947 -0.008045687 0.006209886 0.004818888 0.0007871914 0.0030134462
공지 -0.008727483 0.0021301603 -0.0008735442 -0.009319088 -0.0094281435 -0.001410718 0.0044324086 0.003704071 -0.0064986944 -0.006873069 -0.0049994136 -0.0022868442 -0.0072502876 -0.009603319 -0.0027436304 -0.008362842 -0.006038876 -0.005670929 -0.0023441387 -0.0017069983 -0.0089569995 -0.0007351994 0.008152506 0.0076904297 -0.007206116 -0.0036668323 0.0031185509 -0.0095707225 0.001476438 0.006524465 0.0057464195 -0.008763063 -0.004517145 -0.008140161 4.595518e-05 0.009263632 0.0059733056 0.005067308 0.0050610616 -0.0032429171 0.009552184 -0.0073564244 -0.007270389 -0.002265389 -0.00077856064 -0.0032161046 -0.000592587 0.007488823 -0.0006975198 -0.0016249418 0.002744398 -0.008359101 0.007855804 0.008536103 -0.009584088 0.0024462652 0.009904971 -0.0076658037 -0.00696692 -0.0077365185 0.008395922 -0.0006813359 0.009144409 -0.008158221 0.0037430834 0.0026350426 0.000742712 0.002327676 -0.007469094 -0.009358375 0.0023545765 0.006148455 0.007985687 0.0057358933 -0.0007773375 0.008306164 -0.009336314 0.0034061312 0.00026675223 0.003857243 0.0073857834 -0.0067251683 0.0055844807 -0.009522226 -0.00080446 -0.008688739 -0.0050986744 0.0092892265 -0.001858263 0.0029144264 0.009071278 0.008938131 -0.008208435 -0.0030123137 0.009886606 0.0051044296 -0.0015880871 -0.0086920215 0.0029615164 -0.006675899
친구 0.0081322715 -0.0044573355 -0.0010683584 0.0010063648 -0.00019111396 0.0011481761 0.0061138608 -2.0272731e-05 -0.0032459665 -0.0015107298 0.005897298 0.001514101 -0.0007242632 0.009333245 -0.0049212836 -0.00083841087 0.0091754105 0.0067494274 0.0015028549 -0.008882561 0.001148746 -0.0022882556 0.009368236 0.0012099266 0.0014900636 0.0024064088 -0.0018360066 -0.0049996353 0.0002324295 -0.0020141816 0.006600933 0.008940122 -0.00067475555 0.0029770136 -0.0061076544 0.0016993236 -0.006926234 -0.008694027 -0.005900204 -0.008956475 0.0072775935 -0.005772033 0.008276351 -0.0072435453 0.0034216738 0.009674997 -0.007785449 -0.009945059 -0.0043291473 -0.0026831317 -0.00027128935 -0.008831551 -0.0086175585 0.0028002094 -0.0082064085 -0.0090693375 -0.002340467 -0.008631809 -0.007056651 -0.008401151 -0.0003013301 -0.0045642997 0.0066271736 0.0015271592 -0.003341477 0.006108971 -0.0060132863 -0.0046561696 -0.0072075105 -0.004336581 -0.00180933 0.0064896415 -0.002770393 0.0049189664 0.0069044423 -0.0074637057 0.00456485 0.0061269784 -0.0029544758 0.0066250204 0.0061258795 -0.006443486 -0.0067645526 0.0025389576 -0.0016238189 -0.006065128 0.009499209 -0.005130148 -0.0065540983 -0.0001198864 -0.002701428 0.0004444003 -0.0035374593 -0.0004193306 -0.00070861576 0.00082282064 0.008194816 -0.0057367086 -0.0016595292 0.005571606
진짜 0.00816812 -0.0044430327 0.008985434 0.008253665 -0.004435222 0.00030310394 0.00427449 -0.00392632 -0.0055599664 -0.0065123225 -0.0006707382 -0.00029592274 0.0044630836 -0.0024740554 -0.00017261028 0.0024618744 0.004867599 -3.080845e-05 -0.0063394094 -0.009260807 2.665758e-05 0.0066618943 0.0014660215 -0.008966522 -0.007938605 0.0065519023 -0.0037856817 0.0062549924 -0.006681032 0.008479662 -0.0065163253 0.0032880188 -0.0010569858 -0.006787529 -0.0032875966 -0.0011614132 -0.005470941 -0.0012113475 -0.0075633144 0.0026466583 0.009070149 -0.0023772502 -0.00097651005 0.0035135604 0.008665088 -0.005921853 -0.006887579 -0.0029329848 0.009147696 0.00086626766 -0.008678401 -0.001446979 0.009479466 -0.0075494885 -0.0053581 0.009316561 -0.008973727 0.0038259076 0.0006654406 0.0066607 0.0083127525 -0.0028507852 -0.0039923145 0.008897917 0.002089646 0.0062489416 -0.009445715 0.009590123 -0.0013483096 -0.006052115 0.0029925345 -0.00045661212 0.0047064926 -0.0022830225 -0.0041378425 0.0022778988 0.008354383 -0.004995606 0.0026686788 -0.007990556 -0.006773348 -0.00046766998 -0.008767729 0.0027894378 0.0015985942 -0.0023196936 0.005003791 0.009748786 0.008454268 -0.0018802262 0.0020581507 -0.004003689 -0.008241406 0.0062779547 -0.0019491815 -0.0006662059 -0.0017713332 -0.0045356657 0.004061708 -0.0042701815
그냥 -0.009578547 0.008943114 0.004165068 0.009234734 0.0066435025 0.0029247357 0.00980402 -0.004424641 -0.0068033123 0.0042273807 0.003729 -0.005664611 0.009704759 -0.0035583067 0.009549405 0.0008347249 -0.006338458 -0.001977117 -0.0073770545 -0.0029795242 0.001041696 0.009482686 0.009355848 -0.0065958784 0.003475151 0.0022755694 -0.0024893521 -0.009229174 0.0010271263 -0.008165708 0.006320188 -0.0058000805 0.005535438 0.009833722 -0.00016000033 0.0045284913 -0.0018094016 0.007360761 0.003940096 -0.009010324 -0.002398505 0.003628769 -9.9568366e-05 -0.001201272 -0.0010554385 -0.0016716027 0.0006049514 0.004165094 -0.0042527914 -0.003833623 -5.2816868e-05 0.00026935578 -0.00016880751 -0.0047855065 0.0043134023 -0.0021719194 0.0021035385 0.000666523 0.005969677 -0.006842382 -0.00681571 -0.0044762585 0.009435828 -0.0015918827 -0.009429242 -0.0005450416 -0.004448924 0.006000078 -0.009583686 0.002859001 -0.009252832 0.0012497997 0.005999198 0.0073973467 -0.007621465 -0.0060530235 -0.006838441 -0.007918341 -0.0094990805 -0.002125497 -0.00083593366 -0.007256203 0.0067870356 0.0011196184 0.0058288667 0.0014728665 0.0007893658 -0.0073681306 -0.0021766592 0.0043210792 -0.0050853156 0.0011307884 0.0028833628 -0.0015363622 0.009932294 0.008349633 0.0024156666 0.007118244 0.0058914376 -0.0055806185
학과 -0.0051562428 -0.0066683386 -0.007776835 0.008310728 -0.0019823432 -0.0068549635 -0.004154389 0.0051441262 -0.0028691364 -0.0037496614 0.0016214252 -0.0027762938 -0.0015843606 0.0010744906 -0.0029779458 0.008519283 0.003910935 -0.009958863 0.006259599 -0.0067542554 0.0007694316 0.0044042347 -0.0051033758 -0.0021106696 0.008095479 -0.0042437934 -0.007636261 0.009257913 -0.002155497 -0.004719434 0.0085708 0.0042833374 0.0043248367 0.009284513 -0.00845308 0.00525532 0.0020393515 0.00418828 0.0016979002 0.0044641327 0.004486289 0.006104522 -0.0032020975 -0.0045757294 -0.00042651652 0.0025337338 -0.0032631683 0.006057718 0.004154129 0.0077645923 0.0025692724 0.008116681 -0.0013872099 0.008077927 0.0037170148 -0.008047326 -0.0039336155 -0.0024718784 0.004893043 -0.000872159 -0.0028309084 0.007833707 0.0093229 -0.0016149282 -0.0051592495 -0.0047017597 -0.004846051 -0.009602826 0.0013720202 -0.0042249155 0.0025267077 0.0056144833 -0.004065907 -0.009596582 0.0015466976 -0.0067001223 0.0024951743 -0.003780632 0.0070784213 0.00064022065 0.0035609389 -0.0027391338 -0.0017105484 0.007652793 0.0014076781 -0.0058504487 -0.007834497 0.001232686 0.00645463 0.0055563496 -0.008977051 0.008592164 0.0040469766 0.007469604 0.0097463345 -0.0072895815 -0.009039963 0.0058360007 0.009391213 0.0035069252
대면 0.007088797 -0.0015679311 0.007947497 -0.009488659 -0.008029499 -0.0066403723 -0.004003456 0.004989216 -0.0038135601 -0.008319905 0.008411777 -0.0037470032 0.008608696 -0.0048957514 0.003918593 0.0049220156 0.0023926091 -0.0028188038 0.0028491234 -0.008256238 -0.002765541 -0.0025911594 0.0072490047 -0.0034634043 -0.006599703 0.004340427 -0.00047448635 -0.0035975575 0.006882472 0.0038723112 -0.0039002013 0.0007718873 0.009143502 0.007754655 0.0063618706 0.004667301 0.0023844885 -0.0018416261 -0.006371293 -0.0003018117 -0.0015653897 -0.0005722857 -0.0062628724 0.0074340464 -0.006591494 -0.0072392775 -0.0027571463 -0.0015154004 -0.0076357173 0.0006982398 -0.0053261113 -0.0012755442 -0.007365112 0.0019605684 0.0032731986 -2.3138524e-05 -0.005448358 -0.0017260861 0.0070849154 0.0037362576 -0.008881049 -0.0034135508 0.0023541022 0.0021380186 -0.009464009 0.004571166 -0.008656997 -0.007387068 0.003483112 -0.0034709596 0.0035644697 0.008894091 -0.0035743236 0.009320424 0.0017110371 0.009847774 0.005705042 -0.009149484 -0.003327732 0.006530175 0.0056027793 0.008705515 0.0069261026 0.008038888 -0.00982301 0.0042988253 -0.0050300765 0.0035123848 0.006056688 0.0043921303 0.0075123594 0.0014977145 -0.0012649416 0.005768399 -0.0056395675 3.859043e-05 0.009456587 -0.00548125 0.0038142777 -0.008113022
시험 0.009770293 0.008165114 0.0012809705 0.0050975773 0.0014081288 -0.0064551616 -0.001428051 0.0064491653 -0.0046173073 -0.0039930656 0.0049244044 0.0027130984 -0.0018479753 -0.0028769446 0.0060107303 -0.0057167388 -0.0032367038 -0.006487825 -0.0042346334 -0.008580995 -0.0044697905 -0.008511231 0.0014037776 -0.008618197 -0.009916656 -0.008201625 -0.006772666 0.006680584 0.0037845564 0.00035616636 -0.002957983 -0.007428322 0.0005334187 0.0004998922 0.00019561767 0.0008525944 0.0007863307 -6.816149e-05 -0.008007054 -0.0058702733 -0.008382912 -0.0013120436 0.0018206357 0.007417128 -0.001963427 -0.0023252917 0.009487155 7.970333e-05 -0.0024045228 0.008604846 0.0026870037 -0.0053439736 0.006588106 0.004510152 -0.007054467 -0.000323174 0.0008344865 0.0057473565 -0.0017176557 -0.00280653 0.0017484308 0.00084717036 0.0011928272 -0.0026342822 -0.0059857843 0.007322984 0.0075873756 0.008296357 -0.008598847 0.0026364254 -0.0035599638 0.009620404 0.0029037667 0.0046411133 0.002385614 0.006608477 -0.005743291 0.007894411 -0.002410922 -0.0045618867 -0.0020609903 0.009733558 -0.006856592 -0.00219172 0.0070009995 -5.5749417e-05 -0.006294968 -0.0063935257 0.008940394 0.0064295745 0.004773593 -0.0032620477 -0.009267621 0.0037868882 0.007160549 -0.0056328895 -0.0078650145 -0.0029727411 -0.0049318983 -0.0023151112
교수 -0.0019442177 -0.0052675223 0.009447112 -0.0092987325 0.0045039463 0.0054041767 -0.0014092636 0.009007092 0.009885359 -0.0054750443 -0.0060210014 -0.006746974 -0.007894883 -0.0030479168 -0.005594027 -0.008344681 0.00078290224 0.0029946566 0.0064147427 -0.002628951 -0.004453478 0.0012495709 0.00039146186 0.008116999 0.00018280029 0.007231586 -0.008264516 0.008433535 -0.0018889094 0.008701153 -0.007616837 0.0017963862 0.0010564852 4.600525e-05 -0.005103254 -0.009247699 -0.0072642183 -0.007951174 0.0019137263 0.00047846555 -0.0018131376 0.007120166 -0.0024756931 -0.0013473105 -0.008900564 -0.009925413 0.008949396 -0.005753939 -0.0063729975 0.0051994063 0.0066699935 -0.0068316413 0.00095975876 -0.0060084746 0.0016473436 -0.0042892788 -0.0034407973 0.0021856665 0.0086615775 0.0067281104 -0.009677057 -0.0056221057 0.007880333 0.0019893574 -0.004256053 0.0005988121 0.00952096 -0.0011027169 -0.009424639 0.0016084099 0.006232355 0.00628237 0.004091649 -0.005650239 -0.00037069322 -5.531788e-05 0.0045717955 -0.0080415895 -0.00801831 0.0002647495 -0.0086083 0.005820155 -0.00041781188 0.009971177 -0.0053439783 -0.00048614026 0.007756772 -0.0040679337 -0.0050159004 0.0015900708 0.0026506924 -0.0025649595 0.0064475276 -0.0076599526 0.0033935595 0.0004899693 0.008732183 0.005982714 0.006815362 0.007822544
함 -0.00950012 0.009562223 -0.0077707553 -0.0026455093 -0.004906409 -0.0049666977 -0.008023591 -0.0077835848 -0.0045532132 -0.0012753629 -0.0051029897 0.006140542 -0.009516621 -0.0053071044 0.009437151 0.006991329 0.0076758144 0.004234738 0.00050709245 -0.005981145 0.006018777 0.0026350308 0.0076994323 0.006393843 0.007942569 0.008657405 -0.009895756 -0.006755705 0.0013375735 0.0064403033 0.0073738145 0.00551698 0.007661624 -0.005125568 0.006584408 -0.004108374 -0.0090553425 0.009141679 0.0013314033 -0.0027596809 -0.0024778438 -0.0042204787 0.004812336 0.004400222 -0.0026533627 -0.007341881 -0.0035658525 -0.00033661604 0.006095891 -0.0028373385 -0.00012089491 0.00087972643 -0.0070956494 0.0020650006 -0.0014324236 0.0028021478 0.0048422217 -0.0013520193 -0.002780144 0.0077386475 0.0050455974 0.0067135217 0.004515643 0.008667154 0.007474968 -0.0010818887 0.008747637 0.004601717 0.0054406333 -0.0013860846 -0.0020413185 -0.0044243457 -0.008515198 0.003037727 0.008883192 0.008919742 -0.0019423557 0.0060861562 0.0037797235 -0.0042959666 0.002042923 -0.005437887 0.008208892 0.0054329084 0.003184433 0.0041025686 0.00865715 0.0072720335 -0.0008334732 -0.007072768 0.008380473 0.007233584 0.0017304707 -0.0013474918 -0.005890093 -0.0045330906 0.008647966 -0.0031351089 -0.0063388203 0.009870077
코로나 0.0076966453 0.00912064 0.0011355019 -0.008325081 0.008425016 -0.0036962319 0.005742173 0.0043915794 0.009689944 -0.009293499 0.009208405 -0.009281528 -0.0069077136 -0.009102195 -0.005547111 0.007368896 0.009164477 -0.0033253527 0.003723049 -0.0036252046 0.00788147 0.005866876 2.0742416e-07 -0.0036286758 -0.007224307 0.0047686147 0.0014529777 -0.0026131868 0.007837806 -0.004049616 -0.009148986 -0.0022554707 0.00012514592 -0.0066392566 -0.005486617 -0.008499777 0.009229872 0.007424028 -0.00029524326 0.0073676636 0.007950787 -0.0007835746 0.006612091 0.0037675237 0.0050768424 0.007252991 -0.0047393893 -0.002185533 0.0008731222 0.0042362045 0.0033043313 0.0050958274 0.0045864843 -0.008438509 -0.0031838394 -0.0072367596 0.009681422 0.0050065992 0.00017084122 0.004112978 -0.007656131 -0.006294651 0.0030763936 0.0065346383 0.0039498736 0.006018021 -0.0019861318 -0.0033451295 0.00020716905 -0.0031943608 -0.005516906 -0.0077885604 0.006535542 -0.0010903382 -0.0018908811 -0.007804775 0.009337573 0.00086814165 0.0017696357 0.0024916648 -0.007385993 0.0016388226 0.002976563 -0.008567031 0.004955802 0.0024334074 0.0074979113 0.0050442982 -0.0030317164 -0.007162938 0.007096212 0.0019015336 0.0051992345 0.006381109 0.0019122792 -0.0061276127 -6.2966346e-06 0.008268297 -0.0060985493 0.009438281
뭐 -0.0071909428 0.0042328904 0.0021633934 0.0074407146 -0.0048892666 -0.004564347 -0.006098175 0.0032993674 -0.004499464 0.008522885 -0.0042888285 -0.00910542 -0.0048163556 0.0064164903 -0.006371324 -0.005261538 -0.007304411 0.00602226 0.003357594 0.002848389 -0.0031385517 0.006030891 -0.0061527467 -0.0019801022 -0.005983083 -0.0009956813 -0.002020986 0.008485944 7.800102e-05 -0.008575328 -0.0054290984 -0.006875987 0.00269238 0.009456647 -0.0058159973 0.008265026 0.008532052 -0.00706264 -0.008883214 0.009469182 0.008374364 -0.0046908925 -0.006726041 0.007842136 0.0037633444 0.008095503 -0.007571547 -0.009525085 0.001577406 -0.009805768 -0.004885886 -0.0034601046 0.009620922 0.008623569 -0.0028356076 0.0058268714 0.008237095 -0.002262981 0.009528542 0.007160215 0.0020414996 -0.0038487648 -0.0050817514 -0.0030516528 0.0078878645 -0.006190436 -0.0029150224 0.009191022 0.0034566545 0.006072612 -0.008032817 -0.0007515049 0.0055224467 -0.00471447 0.0074784923 0.009319591 -0.00040936947 -0.002063601 -0.00059335947 -0.0057858895 -0.008386283 -0.0015068746 -0.0025571848 0.004382434 -0.0068675186 0.0054136943 -0.0067450856 -0.00782029 0.008471711 0.008918614 -0.0034812402 0.0034914135 -0.0057957363 -0.008750086 -0.005515573 0.006748729 0.0064177583 0.009438073 0.007055285 0.0067549516
학번 0.0013001657 -0.009804304 0.0045877625 -0.0005382228 0.006332095 0.0017834735 -0.0031297994 0.0077599715 0.0015546656 5.5208206e-05 -0.004612954 -0.008453524 -0.0077668335 0.008670509 -0.008924961 0.009034715 -0.009281018 -0.0002767563 -0.0019070483 -0.008931146 0.008630059 0.0067778137 0.003019438 0.004833453 0.000112190246 0.009424679 0.0070212865 -0.009853728 -0.0044332216 -0.0012901116 0.0030477215 -0.0043239524 0.0014491654 -0.0078459 0.0027780724 0.004702692 0.0049373126 -0.0031757022 -0.008427041 -0.009220619 -0.00072289945 -0.007327466 -0.0068149636 0.0061200047 0.0071723033 0.0021174191 -0.007899401 -0.005698988 0.008051843 0.003920844 -0.0052404716 -0.007391906 0.0007715535 0.0034637547 0.0020791935 0.003100803 -0.005620501 -0.009889486 -0.007020838 0.00023030757 0.0046186782 0.004526308 0.0018798113 0.0051706745 -0.00010536194 0.0041141654 -0.0091232415 0.007700911 0.0061474727 0.0051241564 0.007206669 0.008439796 0.0007386947 -0.0017038607 0.0005186272 -0.009316781 0.008406214 -0.0063799336 0.008427842 -0.004244356 0.00064684154 -0.0091641685 -0.009558568 -0.007836811 -0.0077310563 0.0003755808 -0.0072264625 -0.0049502132 -0.0052717067 -0.004289298 0.00701231 0.00482939 0.008682771 0.0070935916 -0.005694406 0.007240796 -0.009294903 -0.0025875687 -0.007757168 0.0041926
순천향대 0.0018002295 0.0070460914 0.0029446983 -0.006980851 0.0077126767 -0.005988927 0.008997708 0.0029592037 -0.004015293 -0.004688995 -0.0044167233 -0.006146457 0.009378741 -0.0026495957 0.0077724387 -0.009680335 0.002108791 -0.0012336159 0.007544229 -0.009054601 0.007437563 -0.005105796 -0.006013775 -0.0056491564 -0.0033791708 -0.0034110975 -0.0031956648 -0.0074922014 0.00070877554 -0.00057607173 -0.0016840005 0.003757131 -0.0076201893 -0.0032214236 0.0051553417 0.008543863 -0.00980994 0.0071953367 0.0053094863 -0.0038796973 0.0085761575 -0.009221992 0.0072486806 0.005363834 0.0012935948 -0.005199754 -0.0041786525 -0.003356781 0.0016082859 0.0015867043 0.0073882435 0.009977593 0.008867337 -0.00400645 0.00964539 -0.0006295419 0.0048654317 0.0025490164 -0.0006298113 0.0036674475 -0.005319414 -0.0057566785 -0.007604644 0.0019064331 0.0065258695 0.00088212726 0.0012569475 0.0031715964 0.008134666 -0.007700062 0.0022607518 -0.00747411 0.0037098122 0.009510548 0.0075202584 0.0064260294 0.008014774 0.006551144 0.0068566753 0.008682086 -0.0049480414 0.009212954 0.0050592017 -0.002130251 0.008487449 0.005081341 0.0096489545 0.0028324008 0.009867537 0.0011970043 0.009129183 0.003586967 0.0065648053 -0.0036113309 0.0067929076 0.0072435737 -0.0021334623 -0.0018595553 0.0036117458 -0.0070364284
확인 0.009735549 -0.009780383 -0.0064994907 0.0027837849 0.0064319875 -0.005367367 0.0027524924 0.009121311 -0.0068154214 -0.0060999133 -0.004989643 -0.0036764122 0.0018497157 0.009682631 0.006437776 0.00039709092 0.0024707676 0.00844049 0.0091289785 0.0056287525 0.005946262 -0.0076206876 -0.003827672 -0.005680332 0.006181774 -0.0022564507 -0.008779435 0.0076191234 0.008399682 -0.0033202362 0.009116659 -0.00073836086 -0.0036265207 -0.00038469076 0.00019442558 -0.003504896 0.0028132414 0.0057297037 0.0068690088 -0.008903468 -0.0021927285 -0.0054817987 0.0075211 0.006501703 -0.0043607233 0.002326832 -0.0059536626 0.00023649454 0.009461758 -0.0026098418 -0.0051877187 -0.0073972107 -0.002911942 -0.000864315 0.0035278606 0.009741888 -0.0033892752 0.0019017672 0.009681008 0.0015315866 0.000986495 0.00980237 0.009295459 0.0077080657 -0.006170528 0.009983986 0.005848987 0.009072666 -0.0019951987 0.003349936 0.0068335556 -0.0038937568 0.0066428497 0.0025628614 0.009313729 -0.0030358052 -0.0031093692 0.006215389 -0.009078246 -0.0072539924 -0.006500027 -0.00074907544 -0.0023630215 0.006815519 0.009236591 -0.00090976 0.0014128232 0.0020203567 -0.0020197988 -0.008034341 0.0074410485 -0.004297903 0.0045765187 0.009089704 0.0030432225 0.0031387901 0.0040618274 -0.0027012182 0.0038247681 0.00033762216
동아리 0.005626712 0.00549737 0.0018291187 0.0057494068 -0.008968079 0.0065593575 0.009225991 -0.0042071487 0.0016075491 -0.0052338815 0.0010582185 0.0027701687 0.008160736 0.0005440116 0.0025570584 0.0012977337 0.008402522 -0.0057077026 -0.00626183 -0.0036275196 -0.002300551 0.005041063 -0.008120358 -0.0028335357 -0.008197427 0.00514971 -0.0025680638 -0.009067109 0.0040717293 0.009017322 -0.0030376601 -0.0058385395 0.0030198884 -0.00043584823 -0.009979436 0.008417704 -0.0073388885 -0.004930408 -0.0026570822 -0.005452316 0.0017165089 0.0097128125 0.0045722723 0.008088603 -0.00047045946 0.00064492226 -0.002668352 -0.008779561 0.0034313034 0.0020933724 -0.009421854 -0.0049684383 -0.009734099 -0.005719793 0.004064541 0.00864286 0.00411165 0.0023884631 0.008144777 -0.0011192107 -0.0013977146 -0.008746824 -0.00012579202 -0.0025675725 0.00038607596 0.0072796606 -0.0070414613 -0.003946476 -0.0066646053 -0.003544116 -0.0033158327 0.0021371199 0.0033281683 -0.004957187 -0.0045462917 0.0011386942 0.005453482 0.0053736498 -0.0029685379 -0.0042665266 -0.005616648 -0.00054498436 0.001946373 0.0015253448 0.0073525286 -0.0027333735 -6.592512e-05 -0.0055276346 -0.0011700654 -0.0077119637 -0.0009593296 0.0013096738 -0.008594744 0.0087485835 -0.009207866 -0.009624677 -0.008511624 0.0073132683 0.005465567 0.009249461
질문 0.002570176 0.00084652903 -0.0025394417 0.009357667 0.0027575088 0.0040956475 -0.0011829352 0.0009045029 0.0066243075 -0.0007265019 0.0033415079 -0.0006720209 0.005248396 0.0036399341 0.0025825286 -0.005309894 -0.004708102 0.004308021 -0.005907171 -0.0001802063 -0.0006335163 0.0034932422 -0.008442266 0.008817234 -0.0014487457 -0.005330927 0.0040544677 -0.0019354916 -0.007765484 -0.0044967984 -0.0003877282 -0.008946474 0.0005705619 0.0024417925 -0.0032252742 0.0025704002 0.0024807977 0.009988215 0.0014305044 0.0020205379 0.0027795602 -0.0020778729 -0.008698616 0.008023174 -0.0019746972 -0.009692314 -0.0065520047 -0.003945861 0.0039543463 0.005038581 0.006086011 -0.00677026 0.00068883656 -0.0027752828 -0.005209198 0.0069812727 0.0039519668 -0.0031065082 -0.008276909 -0.005140786 -0.0006495357 0.0078117633 0.0060441853 -0.008451657 -0.009563536 0.0071338345 -0.002327566 -0.0036923098 0.005749831 -0.005844307 0.0050939536 -0.0002424264 -0.0068751643 -0.00033163786 0.0063589904 0.009293938 0.002220912 0.0050500915 -0.004974525 -0.00079755305 -0.0053176354 0.0011889625 -0.0017932153 -0.003632636 -0.0070143794 0.009654432 0.0029758262 -0.0022812248 -0.004184091 0.0077137877 -0.0064818547 0.003121543 0.0007873559 0.008322881 0.006836176 -0.002908647 0.0025351 -0.0016660738 -0.009454663 -0.002613461
수업 0.0013325238 0.0065408563 0.009984603 0.009062455 -0.008015361 0.0064913845 -0.0057147383 -0.0009715748 0.00048282146 0.0065819337 0.0044701435 0.004603727 0.009483123 0.0003826642 -0.0060387133 -0.0063301013 0.0064317896 -0.0052425815 -0.0028498126 0.004075284 -0.002290237 -0.006025214 -0.002323656 0.0012069178 0.0021833587 0.006083772 -0.005214002 0.00307796 0.0072406745 0.0021951126 0.0053974893 -0.0048453333 0.0061526108 -0.0076012826 0.0034928655 -0.009321804 -0.0026043104 -0.009073201 -0.0015882683 -0.005364752 -0.00394392 0.0011536527 0.0028003477 -0.0015263963 -0.008170516 -0.0059180236 0.0008192945 -0.003946259 -0.009430449 -0.0007749748 0.0066332673 0.005978844 -0.009917259 0.0031185818 -0.005987301 -0.009181891 0.00017021179 -0.00036962033 -0.0069720005 -0.0062800576 -0.0024260855 0.007096655 -0.007545879 0.007698083 -0.0004754448 0.0010932923 0.00948266 0.00472816 -0.0035727667 0.0037356187 0.0035192848 0.006336696 6.933927e-05 -0.0044236872 0.0013182712 -0.0054142354 0.0014117574 0.004926181 0.005154848 0.009181637 -0.007512665 -0.005403645 0.0064693713 0.0013554788 -0.0066118026 0.00088438985 0.0026770402 -0.0025288367 -0.0049601602 0.0050047543 0.00962182 -0.0073646735 -0.00011532307 -0.0025644589 -0.006365142 -0.0013786554 -0.0052507855 0.0090599945 -0.00579077 0.003686075
공부 -0.00023748637 0.0042191767 0.0021141458 0.009995821 0.0006294799 -0.0054644276 -0.0011796928 0.002070532 -0.0033730697 -0.007846768 -0.0055992627 -0.0067500686 0.0063533257 0.0039225556 0.0082155345 0.0065196683 -0.0061278413 0.00271595 0.008472126 0.0015956569 0.0030682278 0.0058126138 -0.008839372 0.009124747 0.006819482 0.0085104415 -0.008226263 0.0061755395 0.006629071 -0.0013576436 -0.006293867 0.005326679 -0.006859579 -0.005323355 0.0035116887 0.008080971 0.008692694 -0.004405315 -0.009188771 0.009607694 0.0062903073 -0.003966336 -0.00845973 -0.004718335 -0.0039572287 -0.0032734512 0.0008190918 -0.00029716254 -0.003112378 -0.005995989 0.009420519 -0.0047255373 -0.0072620986 0.007684729 0.0025176955 0.008626394 -0.0044651176 -0.0068924045 0.0009849024 -0.0011729765 -0.009397065 -0.001603074 0.003050599 0.006565781 0.0068452405 0.0032082773 -0.0044432734 -0.001839168 -0.003940258 0.005773914 -0.006358709 0.0021030188 -0.0013452339 -0.0058127786 -0.007246213 0.005852561 -0.008358205 -0.0006872511 0.002827425 0.00773901 -0.0072979094 0.003304572 0.0098084975 -0.006977079 -0.003534858 0.005133512 0.0052383854 0.0016241145 0.007971134 0.0008315873 0.0018713165 -0.0016052509 -0.008166278 0.0032578039 0.0019663644 -0.008734205 -0.0006750083 7.667064e-05 -5.9604645e-06 0.008710134
고양이 -0.0025087667 -0.0059026573 0.007483337 -0.0072597335 -0.008966119 -0.0017895937 -0.008367438 0.00039020777 0.001945734 -0.0024694847 -0.0064480114 -0.00032118082 -0.001098504 0.0034933614 0.008127012 0.0058555696 0.008440988 -0.008968172 0.009442487 -0.002365756 0.008697052 0.0023846172 0.0035852408 -0.009581688 -0.009486454 0.008983919 -0.002896769 0.0028164173 0.0064194417 -0.0002999282 0.009721897 -0.0010337163 -0.0096728755 -0.0070548486 -0.0010431575 -0.008674901 0.0074214484 0.0036193323 -0.008746946 0.008479722 0.008929639 0.0058473684 0.006909852 -0.009570913 0.0004924679 -0.009220631 -0.003666017 0.00025316954 -0.00028040647 0.0014652824 0.0032775425 0.0021269275 0.005319846 0.0075204945 -0.005885689 0.007957315 0.0059915064 0.009785888 0.0046238564 -0.0033272768 -0.003746407 -0.00062912464 -0.0016551996 0.009872585 0.0011232042 0.004007254 0.0034185553 -0.008851304 0.006720617 0.0081910305 -0.0016658425 0.0023334527 -0.006479216 -0.006125755 0.008216045 -0.0030454206 0.0067400313 0.0015531849 -0.0019815636 0.0030553269 -0.0040210555 -0.0017854309 0.0013807297 0.0048871804 -0.0014052248 0.00065652846 -0.007932451 0.009495156 -0.008762551 0.0070699193 0.0039051366 -0.006998069 -0.005295179 -0.007938247 -0.005130279 0.0070705917 0.009640617 0.0021546124 0.00064040424 0.009524469
분 -0.0049735666 -0.0012833046 0.0032806373 -0.0064140344 -0.009701591 -0.009260234 0.009020695 0.005371692 -0.004788227 -0.008329642 0.0012939501 0.0028780627 -0.0012452841 0.0012708711 -0.004321303 0.0047913645 0.001475184 0.008877823 -0.009976514 -0.0052695703 -0.009102843 -0.00034791947 -0.007857306 0.00503124 -0.006396856 -0.0059528374 0.0050709103 -0.008159769 0.0014552021 -0.007239542 0.00986242 0.008633759 0.0017689514 0.0057885027 0.0045962143 -0.005991783 0.009756947 -0.009682207 0.008049257 0.0027563786 -0.003055122 -0.003561864 0.009071954 -0.00544091 0.008186872 -0.006008887 0.008391376 -0.0005554938 0.007942598 -0.0031549716 0.005979214 0.0088043455 0.002543838 0.001317749 0.0050391913 0.008002522 0.008568013 0.0084927725 0.0070525263 0.008002648 0.0085997395 -3.30925e-05 -0.0010037327 0.0016657901 3.273487e-06 0.00068517687 -0.008600938 -0.009594731 -0.0023146772 0.008928198 -0.0036475873 -0.0069781947 0.0048793815 0.0010691166 0.0018510199 0.0036529566 0.0035206722 0.0057261204 0.0012343001 0.0008444619 0.009045251 0.002782216 -0.0047028568 0.0065421867 0.005213311 0.002870567 -0.0031378341 0.003336835 0.006364298 0.007081039 0.0009411645 -0.008531768 0.00025776148 0.00037041903 0.003942981 -0.009468961 0.009707871 -0.006972277 0.00576144 -0.009429872
대학 0.009648528 0.007324829 0.0012616563 -0.003405237 -0.00045066117 0.00042262315 -0.0064092064 0.005745158 0.0023714018 0.0037779354 -0.0072550178 0.00852629 0.0005082536 -0.00020392657 -0.009071607 0.0040487554 0.0067634345 0.0073550916 -0.006417525 -0.007856062 -0.005523715 -0.0006028986 -0.008337982 -0.008240116 -0.0019175697 0.0011392855 -0.009506548 -0.003732934 0.0006447792 0.0068099643 0.0017349911 -0.0006323838 -0.007481396 -0.006742096 -0.00069442985 0.0074675824 0.00544287 -0.0014826917 0.0011723089 -0.009605777 -0.0013844967 -0.004626224 0.0058093094 -0.0023380136 -0.0047640656 -0.009475115 -0.001200316 -0.007197771 -0.0016852188 -0.0040698242 -0.0023741364 -0.0032483363 -0.008156474 -0.0012484122 0.0016909433 -0.0040476443 -0.0076414538 -0.0035866357 -0.009047134 -0.0007584262 0.0058830045 -0.002961347 0.003161757 0.004995718 0.008468428 0.005621414 0.0095085455 -0.009646683 -0.007962675 -0.0067581558 -0.0074677086 -0.007963619 -0.007788169 -0.0029426264 0.0013961601 -0.0028747893 -0.0088162515 0.004985862 0.00090089085 0.0045904014 0.0071953367 0.007648294 -0.0008046484 0.003659959 -0.005123577 0.0019106817 0.0045382692 0.009886663 -0.0031874895 0.002839334 -0.005736351 -0.002210567 0.008125096 -0.0039046574 -0.001188581 -0.009284976 -0.009476776 0.008882766 -0.005702922 0.0050527905
학년 -0.0069636083 -0.0024585128 -0.008022938 0.007500527 0.0061274148 0.0052584694 0.0083778575 -0.0006965327 -0.00931273 0.009115665 -0.0049285362 0.007847989 0.0055338596 -0.0010790777 -0.0076642158 -0.0014598035 0.006253536 -0.006966083 0.0014420962 -0.007951858 0.008721347 -0.0028557896 0.009437301 -0.0057080747 -0.009717724 -0.008627904 -0.0040748357 0.0047095944 -0.00024194003 0.009223511 0.0031092144 0.003747766 0.0029963492 0.008148649 -0.0023967146 0.007407339 -0.009536714 0.0029210853 -0.0006816697 0.0004522562 0.006843009 -0.0028419732 -0.0023567795 -0.00010047674 -0.0004976916 -0.0035749627 0.006244483 -0.006558669 0.007891999 -9.346008e-05 0.0026088404 0.0032231498 -0.0002816534 0.0017063022 -0.0031406546 0.0047564553 0.00024301052 -0.0032805968 -0.008714575 -0.00999808 0.00031277657 -0.00574681 -0.0011096597 -0.004206095 -0.008638825 0.0010620952 0.0059110904 -0.00221097 -0.007170818 0.0031534361 -0.000384686 -0.0055211424 -0.0011056304 -0.00063965557 -0.0031830906 -0.009955077 0.0076385927 0.0037260079 -0.0025292134 0.007307174 0.0004545903 0.007173152 -0.0015475631 0.007493668 -4.2631626e-05 -0.0060773613 -0.0047158506 0.009628424 0.0005810618 0.0010274005 0.008450286 -0.0062884046 -0.0017638588 -0.0081789205 -0.0066747544 -0.008580487 0.003930609 0.0027393461 0.005615413 0.002571757
신입생 0.0021135139 0.0057351543 -0.0021164084 0.0031722975 0.008443761 0.00038807152 0.006294582 -0.0067435694 0.0065758205 0.0046894765 0.005080347 -0.009918785 -0.0004294443 0.0032061124 -0.0058259894 -0.0066937874 0.0063639046 -0.006823752 -0.0051825 0.008121839 -0.007020297 0.0085453745 0.0006546211 0.0044057057 -0.0030124402 -0.005427735 -0.0089475345 -0.00061247346 -0.0051022386 -0.003076036 0.008111453 -0.00764791 -0.00630928 -0.005263679 -0.0066037416 -0.008840623 -0.0011100412 0.009445977 0.008036537 -0.005274098 -0.008137507 -0.0022573948 -0.009266782 -0.0050677396 -0.005947807 0.0030251218 -0.0075690434 0.0012505841 0.0022869015 0.0053133154 -0.0020203972 -0.009771662 0.0052216672 -0.005906494 0.0048857545 0.0019747543 0.00881742 0.0015313363 -0.0018274641 0.006488769 -0.0070699216 -0.008389063 0.0037891697 -0.0025769519 -0.004183841 -0.0019248795 -0.009875093 0.00026053668 -0.0010566545 -0.002971418 0.0025006437 0.0046933936 0.0063426066 -0.007913747 -0.0049889944 -0.00878747 -0.008949037 -0.003730061 -0.001273706 -0.008212633 -0.00537632 -0.0021517754 0.0063426876 0.0015686083 0.008314688 -0.00831621 -0.0045758747 -0.00080408336 0.008800178 0.0011063504 0.0015399766 0.0012907839 0.0029226209 -0.009395948 0.0032544017 0.005464685 0.0052863266 0.004439888 -0.008086369 -0.004059777
사건 0.008348911 -0.0005730915 -0.009436779 0.0047836374 -0.006045139 0.0066814926 0.0053737783 -0.005045674 0.0025694275 0.005416641 -0.0035853053 -0.0015160346 0.009169571 0.0090632085 -0.009392965 0.007567308 0.009888048 -0.0028401709 0.002459345 -0.002803352 0.008645444 -0.0002832842 0.0056363083 0.009212894 0.0041102455 -0.00712039 -0.0019258308 0.000978024 0.0020340753 0.0029542136 0.009449358 0.0044011 0.0099139 -0.008657703 -0.005754416 0.0019863057 0.0036561727 -0.00099118 -0.00691165 -0.0032116629 -0.008527572 0.009410713 0.0037244344 -0.007879419 0.0031869675 0.0041738343 -0.0056389854 -0.005912793 0.0010383654 0.0089620445 -0.0096462825 6.289482e-06 -0.006864946 -0.00093225 0.0030410003 -0.005029967 -0.0027760053 0.0006755877 -0.006362221 0.007286577 0.004378421 -0.008558536 -0.0021489717 0.0031645298 -0.008327594 -0.007068913 -0.008453741 -0.0054985927 0.008856096 0.0070770476 0.0028857135 -0.00855457 0.0057432316 0.0046334174 0.00011897564 -0.008842938 -0.0018837309 0.0001908636 -0.0077579427 0.0024701594 0.00048376562 -0.0070600295 -0.008269411 0.0060421894 -0.0083504915 -0.0055797864 0.005580125 -0.00048635245 -0.0030543662 -0.005194378 -0.0011979485 0.005271716 -0.0059464406 -0.0049771736 -0.004948623 -0.004756348 -0.007980094 -0.0097564645 0.007582166 0.00799675
후 -0.0042843176 -0.009328063 -0.0018725157 -0.003708272 0.009098608 0.002940142 -0.0059781456 -0.0033582854 -0.009902485 0.0019441199 -0.0039883684 -0.0027087044 0.0051764892 0.0075990222 0.004383826 -0.0068204165 0.006698642 -0.009631794 -0.006987288 -0.008006001 -0.0022629309 0.00047983884 -0.0037722825 0.0018453717 0.009207184 0.006678054 -0.0010548257 0.009092958 0.0015568947 -0.0019739128 -0.0065949513 0.006473901 -0.009069603 -0.0018966055 0.0076923966 -0.0025868607 0.0016061926 -0.007346115 0.00497808 0.007373066 -0.009308541 -0.003277855 0.007892737 0.0029338216 1.45411495e-05 0.00034330843 -0.009865429 0.00993675 -0.0020013405 -0.004887321 0.0027492405 0.0010299706 -0.0059315898 0.005792644 -0.0025034666 -0.0061783814 0.007235708 0.006463475 0.008820281 0.0011633944 0.0005100012 -0.00792962 0.0046488834 0.009361134 -0.0006796408 -0.0017629695 -0.003813169 -0.0004918766 -0.0076174354 0.0056892443 0.0014908862 0.009292746 -0.0064244056 -0.0050892304 -0.0062346505 -0.0072766924 0.002756567 0.0048946165 0.0013419699 0.0035407497 -0.009388275 -0.001069591 -0.0077428864 0.002952137 -0.0026861357 0.008882999 -0.003434341 0.0068382192 0.0041148686 0.0013643933 -4.046202e-05 0.0081725335 0.0023617363 0.008258228 0.0033353854 0.005423112 0.005101912 -0.0076287817 -0.0057886005 0.0012341761
관련 0.00019430876 0.0021453358 0.0010656428 0.007586694 -0.004421694 0.00032459735 0.0070065353 0.0022517943 0.0042427494 0.0043032765 -0.0012656474 -0.008322575 0.0030442548 -0.008873143 -0.002660861 -0.0093920445 -0.00046201705 -0.0078632925 0.0074139764 -0.004890318 0.009918299 -0.009032266 -0.0043121767 0.0019289255 -0.0029974317 0.0014457821 -0.0036808443 -0.0008941722 -0.0057273675 -0.0098210145 0.006339197 0.00038365365 0.0065095164 -0.0074726297 0.0036635494 -0.009897888 0.0076107313 0.0059245466 -0.00611748 0.00821306 -0.0055800485 -0.0085536 0.0015002846 0.0031799627 -0.008096602 -0.008934264 0.009171321 0.0016437746 0.0008743262 0.0024782324 -0.0035071445 0.0017350387 0.0019580817 0.009806002 -0.005608132 0.0022730255 0.006307142 -0.006677332 -0.00893379 0.008656218 0.0068380497 -0.0040197754 0.005742345 0.0007885194 -0.0050106836 -0.0013497567 -0.0048983647 0.006134777 0.0019618655 -0.00831994 -0.00014626027 -0.0026477408 0.006606526 -0.0011456895 0.0076661017 0.0019482756 -0.0038305211 0.008158157 0.0029495358 -0.003970039 -0.005599842 -0.0030892682 -0.0051345704 0.0034401203 -0.009282635 -0.0058208536 0.0033412217 0.000197649 0.0059951018 -0.0036055804 -5.9747695e-06 0.0024750018 0.005460656 0.0016113877 0.009816093 0.0037182115 -0.0071821786 -0.0014060759 -0.00836813 -0.0053270743
대한 -0.0021953988 -0.009707651 0.009295289 0.0020319677 -0.001161182 -0.005503707 -0.0085098315 -0.009903477 0.008944385 -0.0024994253 0.004592376 -0.0045173643 0.009958058 0.0036547207 0.0010256934 -0.0040441034 0.0012106204 -0.0026468039 0.007350738 0.004478252 0.000986681 0.003483088 0.0037143494 -0.006785376 0.008930761 0.0017362308 -0.0057874657 0.008656683 -0.0012914777 0.008187037 -0.0015068721 0.0069876504 0.0027263951 -0.004359729 -0.0037479282 0.009191782 0.001591866 -0.006007011 0.00034962178 -0.0019623996 0.0015845251 -0.0077173184 0.0073840856 0.0013122249 0.007875197 0.004453044 -0.0043938733 0.0037526798 -0.00063848495 -0.00985625 0.00824213 0.009649372 0.009653389 -0.0037998057 -0.008449623 0.0048277043 -0.0076554823 0.008532052 0.0027602506 0.005603337 0.0061164927 0.00046480657 -0.0020948958 0.00077317236 0.0098359585 -0.007124536 -0.0015524555 -0.0023585416 0.0048660063 0.006450038 -0.0041320394 0.003623669 -0.0044811275 0.0032704663 0.008168473 0.003628607 -0.004572811 -0.0030091642 0.007866404 0.009604061 0.005817094 -0.0032740354 -0.0018252826 -0.0062573934 -0.0042955754 0.003374362 -0.0064877463 -0.0066161607 0.00811142 0.00950546 0.008140583 0.0015104342 -0.008795891 -0.0075971675 0.0015720773 -0.009527631 -0.007410209 0.0020241237 -0.0029211687 -0.009157011
곳 0.0064154314 -0.0089511415 -0.007345474 -0.001751144 0.0016980076 -0.0010342216 -0.005204275 0.0065792515 0.008782811 -0.0074120974 0.009805565 0.007366648 -0.0074607255 -0.0018999577 0.004252038 0.0070596053 -0.0036636877 -0.006973083 0.004724834 -0.0090386085 -0.005850303 -0.0012834811 0.0054809167 -0.005686941 0.0047847843 -0.00043494703 0.0026672625 0.0064039277 0.0014176298 0.0077085732 -0.00032240152 -0.008263704 0.009178498 -0.0048582028 0.004721906 -0.0039027834 -0.007329519 -0.006512649 0.004677334 -0.00065943244 0.0014602685 -0.00892828 -0.0051465537 -0.006054423 0.008412788 -0.008697433 0.0050248434 -0.0008613515 0.00018937587 0.008799758 -0.0035854387 -0.0069373394 0.0007635784 0.0077428343 0.009120863 -0.0036847114 0.0027328061 0.0049426104 -0.0052920487 0.0068525337 -0.0064529707 0.002100842 0.004587257 0.0043851114 -0.0046662856 0.0026424218 0.007309964 0.008611688 -0.009512532 0.005574746 0.004968064 -0.001594758 0.0091868825 -0.0041810106 -0.001748724 -0.006863308 -0.0037766767 0.00024267434 -0.0032715343 -0.0054172636 0.006568873 -0.0053028557 -0.0063216304 0.007640967 0.009651184 0.003994918 2.6326179e-05 0.00078929187 -0.00096155406 0.0068626525 -0.0062529948 0.00050760986 0.0042921496 -0.0021114135 0.0008938813 0.0037101412 0.009710052 0.0021757602 0.009500163 -0.0058298446
위해 0.0048006605 -0.0036283778 -0.00426481 0.0012197566 -0.0041273 -0.0056271744 0.0031430125 0.008337658 -0.006545665 -0.009113943 -0.0033317686 0.0075272345 -0.009689016 0.009598277 -0.00041824818 0.0023048043 -0.0018496609 -0.0057621095 0.0031006956 0.0061950875 -0.0070529054 -0.0011733174 0.0015594197 0.004248972 0.0071413494 -0.0035466957 0.007275388 -0.005570972 -0.0021948265 0.009084761 0.005382323 -0.008485057 -0.0016556453 -0.008838222 -0.0016418791 0.005655618 -0.0074182986 0.005510068 0.0060900594 -0.0037704802 -0.009655815 -0.0025188185 -0.0025530243 0.0037585355 0.0089206835 0.001995902 -0.0021115374 0.0029695653 -0.00680372 -0.0012933516 -0.0014832354 0.009604864 -0.0058095646 -0.007040243 0.0023611474 0.0026347684 -0.0071459725 -0.0058777547 -0.0011830234 -0.0033028245 -0.00897573 -0.0040495205 -0.0029657555 0.006502664 0.000973897 0.0015988111 0.00027833937 -0.0033841396 0.0031023694 0.00071166514 0.0059828376 -0.0007752204 -0.008901267 0.00088275434 0.0099238185 -0.005249174 -0.005216467 -0.0025187517 0.008583448 -0.0008316445 0.009418366 -0.00833611 0.009017041 -0.009713123 0.00919956 0.0018727136 0.0026604487 -0.0058586025 0.008439186 0.0060436297 -0.0054871393 -0.009498821 0.0069684004 -0.005535932 -0.009321323 0.0025973557 -0.0049780104 -0.0073600505 0.009730559 -0.0015858245
내용 -0.0015110135 -0.0040345048 -0.004398854 -0.0046293857 -0.0055957153 -0.0053018047 -0.008022304 0.009518845 0.006399064 -0.0036066938 0.0024784422 -0.0076424954 0.0075231004 0.008304734 0.00078943017 -0.006832991 -0.002957728 0.0047339676 -0.002939384 0.0031764721 0.009408715 0.004353106 -0.005145481 0.005467093 -0.0028791928 -0.0063939407 0.0070078014 -0.009253933 -0.0011306572 -0.0013853407 -0.008415947 -0.0011023998 0.0055972575 -0.0052676536 -0.007026136 0.0062002684 -0.0034264398 -0.007819558 0.0002933693 -4.9803257e-05 0.0075409054 0.00056930067 0.007882459 -0.009812782 0.0040332675 0.0062181093 0.0010294437 -0.002836411 0.0010266138 -0.00083912135 -0.00810827 -0.0067834733 0.0012001538 -0.0020178747 0.0095494175 -0.00094942807 0.0061186957 0.002046137 0.008099689 -0.009290521 0.0023927283 -0.0014512587 0.0021549987 -0.00021980047 -0.006640632 0.009050455 -0.002843399 0.0019143128 -0.006441698 0.003714218 0.009995804 -0.0011962557 0.006580217 -0.00012432098 0.0079281805 0.009650929 -0.00039128782 -0.0016983438 -0.009521616 0.009874873 -0.0025329662 0.0021891904 -0.0016988873 0.008327348 0.008343778 0.0015368843 0.002885666 0.006434064 0.0022477007 0.006444316 0.00014673948 -0.002285471 0.0053072525 -0.0034152747 -0.0026156115 0.008791728 -0.009154694 -0.003413644 -0.0029241275 0.005668929
참고 0.007943497 -0.0064516068 0.00579453 -0.00021767378 -0.009031863 -0.0024426698 -0.001584332 -0.004480822 -0.0007937813 -0.005238435 0.0059405947 0.009303379 -0.001587665 0.0033767414 -0.0007480168 -0.00069963216 -0.0070105623 0.0014569045 0.0039026928 0.0069100712 0.0065388395 0.0035366034 0.00466167 -0.00743211 -0.0013864994 -0.0057826424 0.0068010474 0.007826643 -0.0042740228 0.0011536574 0.0051094033 0.0018094849 0.0007859159 -0.00674016 0.009832677 -0.007259703 -0.0060337544 -0.005666082 -0.0063479636 -0.0034910608 -0.009400296 0.0011781335 -0.003750236 -0.0025512886 0.005784941 0.0035504817 0.0018209171 -0.0013740516 0.009877477 0.00028656007 0.0050154543 0.00903775 -0.009766579 -0.009155374 0.009922827 0.0027367878 -0.0018855811 0.004724064 -0.0043154047 -0.0063976385 -0.008257408 0.0072101187 -0.0024493719 -0.007543168 -0.0059103873 0.0061755227 -0.0024796915 -0.0061457898 -0.0016179824 -0.0014735531 -0.003254845 -0.0020892383 0.0041057323 0.0014466 -0.003490343 0.0026923728 0.0052289413 -0.009190812 -0.007558339 0.006296368 -0.008938105 0.0005282235 -0.008993818 0.008369828 -0.0042935372 -0.006620498 -0.0013837719 -0.0011136746 0.007533026 0.009109523 -0.00035077333 0.0026935767 0.004737196 0.00014275312 -0.005780003 -0.0005944204 0.0021829747 0.0083017135 -0.0035923265 -0.0098455455
본인 0.0053829267 0.009810689 -0.0070547746 -0.00058250665 -0.005064535 0.0064350246 0.009657302 -0.0003330636 0.005140445 0.00653868 0.0044090413 -0.008031235 0.0031026434 -0.0014863872 -0.002161081 0.0054020835 -0.00131706 0.009927468 -0.00063917873 0.00026362896 -0.0022936391 -0.008513496 -0.009811151 0.004950764 -0.0066208364 0.0029654957 0.0027743815 -0.0070067835 -0.0031360174 -0.005807562 -0.008564556 3.8166047e-05 0.009787054 -0.0066758823 -0.0043618535 0.0083303265 0.009298513 0.009815404 -0.009892318 0.005047953 -0.006642091 0.0068798447 0.006140897 -0.003375609 0.0068841362 -0.007866392 0.0045495653 0.0045803715 0.0059232805 0.0058795023 -0.0026633476 0.0038956022 -0.006108527 -0.0064589716 0.0027430153 -0.009466188 -0.00029909133 0.001091137 0.0080044605 -0.007001588 -0.002322955 -0.004106138 -0.00522794 -0.0004718876 0.004611213 -0.0049819136 -0.001645658 0.008656378 -0.0013084364 -0.0035718156 0.0074316356 0.0012192035 -0.00034047366 0.009459775 0.008125606 0.0034178542 0.0033582544 -0.0022847129 0.00809452 0.005060885 -0.005425744 -0.0061291386 -0.00059935334 -0.007920456 0.0033667088 -0.0092244195 -0.0015445686 0.003356173 0.0030458237 0.0031597614 -0.009063669 0.0034191823 0.0053463364 0.0034679293 0.007792916 0.0016555476 0.0062702177 0.008835113 -0.000942657 -0.00080324174
댓글 0.002227013 -0.0075334953 0.0056283544 -0.005000117 -0.0032710887 -0.0018326187 0.0082162665 0.0022464062 -0.0009076476 -0.0028452754 -0.0021119476 -0.0012858033 -0.0050829197 -0.0041283322 0.00018744469 0.0045546675 0.001796143 0.0069026826 0.0006397152 -0.00322433 -0.007373314 0.0060070064 0.0069699334 -0.006058307 0.004683988 0.009498541 -0.006380684 -0.0028769446 -0.009090302 0.0032281112 -0.003440261 0.0020442104 0.0094394805 -0.0083569335 -0.00931305 0.0017166805 -0.008034416 -0.0090675065 -0.009355221 -0.00028840065 -0.0011017036 0.00074376585 -0.0013398242 0.009039951 0.00878773 -0.0063573266 0.0086958455 -0.009028108 -0.0013384294 0.002539835 -0.000110168454 -0.00380085 0.0004688287 0.0010055327 -0.009408972 -0.004889884 -0.0077108596 0.0038070916 -0.0008849001 -0.007483585 0.005635655 0.0002377367 0.002697885 0.0054308414 -0.0042302846 0.007844944 -0.007857705 -0.0034429622 -0.007366512 0.00097402575 -0.007390275 0.009062689 0.005534272 -0.00723109 0.0061744237 0.0066042827 -0.0074152853 0.004654789 -0.007721498 0.009320669 0.0046904087 -0.00022905112 -0.0089417575 -0.0008946252 -0.00027100087 0.0009066987 0.008662265 -0.0027761674 -0.008682017 -0.00883374 -0.0010575486 0.0013718653 8.723498e-05 -0.0022029376 0.008547566 0.00010643244 0.0064186715 0.003991027 -0.007203188 -0.0021236371
기숙사 -0.007776389 -0.006757629 -0.0031539751 0.0066151978 -0.0008342266 0.008884156 -0.0022917844 -0.005304315 0.0039153052 0.0022164725 -0.00028038264 -0.0024528813 -0.006002536 0.004037669 -0.0076115704 -0.00890654 -0.009161527 0.0083880685 0.0040005827 0.0070921658 0.009890098 -0.0072258376 0.004028504 0.0028211356 0.0061547826 -0.0033879543 0.009330614 -0.005799425 0.0070322086 0.006949744 -0.00039196492 0.0050599836 0.0066446494 0.0015435433 0.0073685218 0.0024086738 -0.0015207696 0.007394402 0.0046873474 -0.0031722402 0.0016461133 -0.00013998747 0.0049632574 -0.0054124333 -0.0041846107 -0.000937953 0.0038218831 -0.006581554 0.007845631 -0.00308784 0.00573998 0.0028640365 0.0068224836 -0.004466267 -0.0032020544 0.0030572414 -0.0027748155 0.0059425235 -0.0059542274 0.0025916481 -0.0007227683 -0.00061427115 0.0025385118 -0.0021852993 -0.0042575216 -0.008552597 0.0024882792 0.005324707 -0.0058672144 0.009109111 0.0040364335 -0.005175426 -0.0013132286 0.0039263726 -0.0070054103 0.0020553279 0.005506566 0.006254835 0.0054265927 0.0036600255 -0.002752087 -0.0060785008 0.0081599215 -0.0073016454 -0.0016200733 -0.0032637643 0.0064887144 -0.006277435 0.0033955073 0.0020475246 -0.004079018 -0.008242691 -0.008037727 0.0035056495 -0.009561276 0.0057067964 -0.0029124285 -0.009173062 -0.005136118 0.0077442694
애 -0.0017214131 0.0064061354 -0.009276538 -0.009146533 -0.005202179 0.00095223903 -0.007175615 -0.009446025 -0.0088856695 -0.00046301365 0.007413511 -0.0083785895 -0.005333021 0.0015175033 0.0033193326 -0.008458166 0.007867761 -0.008216376 0.004736302 0.00941531 0.005660174 0.006172862 0.00823663 0.0034529113 -0.007144458 0.0057470677 -0.008312941 -0.0057238652 0.0059056757 -0.007929403 -0.0058703804 -0.003558364 0.0033930587 0.0052196956 0.0020552755 0.005108552 -0.0026270747 0.004351983 -0.007048397 -0.0016602444 -0.007744801 0.00017380476 0.0046981573 0.004800031 -0.0046552704 0.0017504715 0.007811227 -0.0055738185 -0.003787756 -0.00059754134 -0.0047197603 0.008696859 0.0075421287 0.009221413 0.009362886 -0.00845084 -0.0004797411 -0.0076063825 -0.0048097684 -0.008839708 0.003415773 0.00010644913 -0.0069156815 0.007963083 0.00095298054 0.0002985716 -0.003564067 -0.0033466078 -0.0026424385 0.0076221754 0.0023945929 -0.005170932 0.0047299387 0.0009904957 -0.0027331496 0.007709448 -0.003947239 0.007431519 -0.004215436 -0.0073564625 -0.004496534 -0.003898499 -0.0007044029 -0.001844511 0.0051112175 0.005450568 -0.0017388368 0.0037336922 -0.0020284653 0.00073460577 -0.0013664388 -0.0024628257 -0.004716823 -0.004261787 0.00012702227 0.0016494489 -0.00944871 0.0060763573 -0.0016806173 -0.002974379
돈 -0.0047940756 -0.0043165493 -0.0048005986 -0.009803972 -0.00077741384 -0.007792387 -0.004812026 -0.0073749805 0.009935682 -0.001355896 -0.0077542425 0.005516689 -0.008066356 -0.0019122863 0.0027354646 -0.007079146 -0.008733528 -0.0066415737 0.007468343 0.009057696 0.0039914967 0.0024036837 0.00413785 -0.0040704296 0.009758037 0.0068893195 0.004113734 0.008948889 -0.0083937645 0.00093408587 0.008892209 -0.00093913556 -0.0067378758 -0.0022687817 -0.0027884173 -0.0024982262 -0.0018441844 0.0072826673 -0.0003004694 0.004242337 -0.0037515305 0.008232374 -0.006502156 -0.009338278 -0.0041394876 -0.007365799 -0.004876616 0.00049479725 0.002384851 0.0017398667 0.0050075795 -0.0013956451 0.0022822 0.0003514433 0.007845402 0.008026788 -0.001973493 0.0012574315 -0.0060319114 -0.004758587 -0.006970825 -3.168583e-06 -0.004914701 -0.004046297 0.0015047026 0.0026100064 -0.009118211 0.0017474103 0.00513021 0.004160564 -0.0029069614 0.009480598 0.009449274 -2.7170181e-05 0.0008552957 -0.009248271 -0.0048049116 -0.000101501944 0.004043491 0.00015845298 -0.008724637 0.0058148694 -0.0074150776 0.008553779 0.005516386 -0.006775446 0.002842486 0.007718282 -0.0061090374 -0.0065469146 0.009199035 0.0018047905 0.009710448 -0.0099066375 -0.00150141 0.006899829 -0.0014631819 -0.0017565775 -0.0070790146 -0.00566577
방 -0.0065211104 0.008923266 -0.0015846825 -0.008283496 0.008015957 -0.0029608894 -0.0013320064 -0.000675807 0.0028268145 -0.00471678 -0.0002578163 -0.0028455162 0.00877594 0.0068789003 0.0010995435 -0.006066294 0.0031326103 0.0011364865 -0.0061243796 -0.0057523204 -0.0030965828 0.0023865008 -0.008115018 -0.004991844 0.008098526 -0.0036923098 0.007957926 0.00053580763 -0.0055343723 -0.004964099 -0.0002151823 0.0045926785 -0.0060834764 -0.005508201 -0.0068109916 0.006746459 -0.002403772 0.004016051 -0.001626389 -0.0074154735 -0.0012683391 0.00040310383 0.0035863924 -0.008676006 -0.0068053626 -0.0065569114 0.0029922866 -0.0037421584 0.0010171366 0.0041570473 0.0045188284 0.0023656178 -0.0028730799 0.00064064504 -0.005391672 -0.0063527273 0.008715727 -0.004050679 -0.009317997 0.0037312103 0.008454168 -0.00018828154 0.0022647404 -0.0035471963 -0.004192405 -0.008619836 -0.007853005 -0.009079235 -0.005970602 0.008487894 0.0094366595 -0.0016792321 1.5275478e-05 0.007852855 0.0012625551 -0.005145273 0.0026280521 0.0018057846 -0.0037263846 -0.004890151 0.009643721 0.0076487376 -0.008570142 -0.005525136 0.001421411 0.0009150958 -0.008351004 0.00932817 -0.005381799 0.004601309 0.009231109 0.0010902929 0.0042205835 -0.002715497 -0.009682348 0.0005998683 -0.0010838866 -0.009920709 0.0070056175 -0.0073859883
답변 0.0051208544 -0.00441802 -0.009191077 -0.009063232 0.006233699 -0.005235338 0.0052528665 -0.0015780878 0.009700566 0.007163303 0.009890754 0.008380826 -0.007865484 -0.009587063 -0.0055707884 -0.0008020377 0.005008185 0.0036698221 -0.0020252275 0.0050468612 -0.0033995463 -0.0068137813 0.0047105313 -0.009855268 0.0008898616 -0.0050123837 0.007594886 -0.0037159992 0.0028169823 -0.0062567447 0.009615218 -0.0055903937 0.0035694528 0.003240006 0.008931563 -0.005565424 -0.004373572 -0.0062230635 0.0061498377 -0.0045831227 0.0048112418 -0.0008920431 0.0072727273 -0.006036334 -9.818792e-05 -8.76379e-05 -0.008542649 0.008739378 -0.00210459 0.006435244 9.147167e-05 0.0050272034 0.002213645 0.008849816 -0.008329606 0.008433383 0.008649201 0.0010607577 0.0044232323 0.0038345146 0.0040557957 -0.0029464269 0.0028445602 0.0007665229 0.004826305 0.008413098 -0.007746115 0.00015239716 -0.008732218 -0.0015746617 -0.009032259 0.003162844 -0.0015774369 -0.00069862127 0.0064270855 -0.008098497 0.0011495734 -0.0024211956 -0.0037305378 -0.007282941 -0.0079756 0.008292472 -0.0074378466 0.0048176455 -0.0037867976 -0.0012137913 0.002809248 -0.008584464 -0.0056551006 -0.0077394415 -0.009410536 -0.0047516893 -0.0031603025 0.00048571348 -0.00069741724 -0.007876477 -0.0037873196 -0.002742331 -0.00638469 -0.006378262
못 -0.002607932 -0.00791861 -0.008259738 -0.00758569 0.0035540771 -0.0075884555 -0.003710761 0.00662868 0.0073995637 -0.0063979244 0.006798301 -0.007771077 0.00013180733 0.0066165566 -0.0028397678 0.009220218 -0.00032455684 0.0046845553 0.0069524003 -0.008540754 -0.0060704304 -0.007295449 -0.0011709523 -0.007089524 0.00010927677 -0.008043635 0.0005104637 -0.00038909435 0.0064722206 -0.008881645 -0.0031734514 0.005898354 0.009234393 -0.0017851782 0.00077724695 -0.0060945107 0.00082112075 -0.008139477 -0.007638612 0.0013829279 -8.14414e-05 0.005561643 -0.0097366385 0.0016551495 0.0015750814 -0.0052475953 7.112741e-05 0.0060580564 -0.0065998747 0.00028917313 0.0038951589 0.0017054558 0.002860496 0.008154631 0.00669023 0.0035060525 0.007975803 -0.0076668193 0.0075333836 0.0038895153 -0.0059011127 -0.004192121 0.0063938834 0.005800183 -0.009860401 0.0012479639 -0.0004006076 0.0008136869 0.0070778416 -0.007172923 0.009641128 -0.009457559 0.006219597 0.009496334 -0.0038256217 -0.009392841 0.006184089 -0.0089638615 -0.008295257 -0.0008296299 -0.0066444445 0.00874774 0.007851567 0.0008287954 0.008002033 0.009844699 0.0051898 0.0043188166 0.0053776647 0.0064133834 0.0047286344 0.0063861893 -0.0074497582 0.008860123 0.008282507 0.009378528 -0.0090178205 -0.003447013 -0.00034225226 0.0041669155
정말 -0.008216974 0.00016809226 0.0060254214 0.009575245 -0.0028420805 0.0018259835 0.006324408 -0.0019993973 0.0019565083 -0.00932489 0.0007104516 0.0045789503 0.004498203 -0.009746659 -0.0051493524 0.0029707479 0.001591649 -0.004700248 0.005819278 0.003511765 -0.0078248335 0.009836397 -0.0077167964 -0.003030076 0.009742849 0.0011435866 -0.005545108 0.0011266231 -0.0040914346 -0.006742518 -0.0077583073 0.004758158 -0.009032874 0.004061327 -0.0055258656 0.0054278825 -0.0043655084 -0.005583718 0.006351237 -0.00864531 0.0013329816 -0.0021254753 -0.006685944 -0.0076552774 0.0067570973 -0.0044647385 0.0045859003 -0.009660609 0.0019072986 -0.0019550228 -0.0058981013 -0.0027864529 -0.008657055 -0.0034753894 -0.002578106 -0.0022888042 -0.0051066303 -0.009195068 0.0053436067 -0.0013004851 0.006173587 0.0030742907 0.008549235 -0.0035157918 -0.008894835 0.0013332176 -0.00898747 0.006042774 0.008442573 0.0005020499 0.0077024912 0.0085372375 0.0042007114 0.005414972 0.009128589 0.0011471319 -0.008250956 -0.008325798 -0.0017827868 -0.00062587974 0.008821323 -0.009310777 -0.0025929045 0.009113124 -0.0014422417 -0.009076896 0.0020147562 -0.0058391546 -0.0054824827 -0.00634223 0.00012607574 0.007225101 0.004119313 0.008153425 0.008847761 0.004521 -0.006051192 0.0070687174 -0.009527323 -0.0047912765
학 0.008000352 0.007907588 -0.0054218676 -0.007977174 0.008075378 -0.0038121247 -0.004065392 0.0071844123 0.005423825 0.0038177418 -0.0012296462 0.008669007 0.008452156 0.0069737816 0.009066398 -0.005778043 0.0009986949 -0.0016307544 0.006339936 0.009778199 0.0051675295 0.004059763 0.0065322802 0.00587811 0.00010234594 -0.008343298 -0.002170248 0.009075027 -0.0050799586 0.001008904 0.0048747016 -0.00692801 0.008190873 0.0014734459 0.0024277496 0.008307748 0.0014566254 0.00088965177 -0.009424138 0.009862426 -0.0098660495 0.008550635 0.005052645 -5.6564808e-05 -0.007873318 0.009341657 -0.001378038 0.0053466274 -0.0030297732 -0.004904864 0.00016399146 -0.008030198 -0.00664119 -0.009455352 0.005349915 0.000429008 -0.00091578724 0.005099218 -0.0019703412 -0.0073847626 0.0028684807 -0.005961616 0.0004890966 0.009476514 -0.00095459935 0.0061400984 0.004463153 -0.0035346888 -0.0052263616 0.008853324 0.0021048235 -0.00045241593 0.0008953977 -0.004921324 0.003537116 -0.003099835 0.0042138817 -0.004556582 -0.000792923 0.0039020635 -0.007149272 -0.0025227594 -0.0087218145 0.001556232 0.0020106984 0.0024073196 0.0010806895 9.020567e-05 0.0022129489 -0.00094620464 0.0059216092 -0.0029544712 -0.0050848867 -0.00532768 -0.009668889 -0.008112921 0.0021179796 0.0039844965 -0.0057757543 -0.009681728
에타 -0.0061553954 0.004668391 -0.009070925 0.005080595 0.006351833 0.0061208867 -0.0076307226 0.002832861 -0.005452919 0.009047105 -0.0043126917 -0.0023511695 0.0052211834 -0.0008233929 0.005092759 -0.0042199898 0.004981103 -0.009795018 0.0060749366 -0.0012433863 -0.00560704 -2.0213127e-05 -0.0012235976 -0.0007220054 -0.0017617584 -0.0092731975 -0.007803197 -0.006800139 -0.008628176 -0.0045369817 0.009188094 -0.001812129 -0.0075968313 -0.005893874 0.0036052442 -0.002716756 -0.0015587664 -0.0042538713 0.005961902 -0.007832105 -0.0074977945 0.0075257923 -0.006960554 0.002156756 0.00036995648 0.009667676 0.0042406702 0.0020671058 0.002755525 0.0023034883 0.0021998524 -0.0027221441 0.0040911864 0.0061002136 0.008937504 -0.0007484388 -0.0012222219 0.006466913 -0.0084649185 -0.00065624475 -0.006673245 0.0047833063 -0.008947241 0.0032498026 0.009004738 -0.0020674944 -0.008829994 -0.008178635 0.0032460666 -0.0053461837 0.006447656 -0.0011888719 0.007853673 -0.00050307036 -0.0062165903 -0.005701473 0.0007689619 -0.0047776196 0.0065614413 -0.0035186673 -0.005626793 0.0009534168 -0.0048695467 -0.008211779 -0.0052478625 -0.0018617153 0.00043590783 0.003638444 0.006868892 0.006727965 0.0058613587 0.00032028914 -0.005821495 0.008999586 -0.00065279246 0.0047100354 -0.0014244199 0.005798168 0.005303032 -0.007297273
상황 -0.002742629 0.00010893107 0.0020345568 -0.009289685 0.0048391484 0.0033721186 -0.00017393113 -0.0034973335 -0.0076046633 0.007596054 -0.008603186 -0.0073841955 0.0044516562 -0.0085114315 -0.0032841468 -0.0020905565 -0.0019027805 -0.006835291 0.0042965245 0.0009988617 0.00365659 -0.0013283277 0.006935022 -0.009533587 0.005846217 -0.0051314426 0.0017032814 -0.006941061 -0.0024812245 -0.006428847 -0.0033509922 0.009729529 0.0026897169 0.001605339 -0.0060838317 0.0055729724 -0.008128617 -0.0022934747 -0.0064684106 -0.006382258 0.0022970247 -0.003286712 0.002430079 0.0039164377 -0.006270015 -0.0017449046 -0.0027624941 -0.009796312 -0.009838595 0.0011100078 0.0043808725 0.00023248911 -0.0048719957 0.0036277843 0.0016886258 -0.0094416095 0.0071884394 0.0077731516 -0.0077315615 -0.0007644868 0.0060313107 -0.0027804638 -0.00033712148 -0.0042198393 0.006114628 0.0069955564 0.002086246 -0.0046995566 -0.0018301129 -0.0039987876 -0.009766939 0.007810991 -0.000612216 -0.0006040621 0.0070846104 -0.009036224 0.0063263727 -0.007565441 -0.005358207 0.005075593 -0.0034946203 -0.003486991 -0.006308091 -0.003909895 -0.0026605867 -0.0040949797 0.0094539905 0.009454417 -0.000381577 -0.00028439044 -0.0056418204 0.007917586 -0.004944544 0.005890429 0.009112954 0.0057546687 -0.0009481502 0.005540857 0.006945007 -0.003880787
꼭 0.00066869735 0.0064887833 0.005870006 -0.00017737626 0.0023800994 -0.006513872 -0.009360356 -0.004947617 -0.00538789 0.00058702467 -0.003968234 -0.00036958934 0.0076345517 0.009735687 0.007875881 0.0023892163 -0.0027133322 0.0024317193 -0.002689917 -0.008950145 0.006893041 -0.008648541 0.0037876796 -0.0039562345 -0.005543058 -0.001043582 -0.0065629818 0.008584108 -0.006877935 -0.008960548 0.005766258 0.0044640065 0.004731455 0.0024269414 -0.0037255073 -0.005117302 0.0017721534 0.008346565 -0.0056522773 -0.002382443 0.0018483591 0.0067221927 -0.0063973977 -0.0045277546 -0.0026385712 0.0013348294 0.005371277 0.0055493712 -0.008709504 0.007272608 -0.0025022244 -0.002842641 -0.008858557 -0.005775082 0.0094486065 0.0030875301 -0.008042767 0.0028074002 -0.007072759 -0.009057887 0.003865783 0.0020369673 0.0012546491 0.008846326 0.0062607 -0.0050706314 0.002727828 0.0025451016 0.0023978257 0.008333056 -0.0069134166 -0.0022994326 0.0010089492 0.0063777566 -0.00064873457 0.007928119 -0.004651916 -0.009031401 -0.0070541 -0.004137695 0.009583299 -0.0051272656 -0.004848361 0.0081734825 -0.0074561858 0.002009759 0.0057160426 -0.0075303363 -0.00026297808 -0.0023681903 0.005565622 -0.004560454 -0.0066047884 0.009891739 -0.0046231486 0.007604263 -0.008454764 0.007017343 -0.0033897685 -0.00781486
강의 -0.0011709857 -0.002370403 -0.0018185568 -0.0011773562 -0.0065171123 -0.0035448861 -0.0031973387 0.0077222944 0.0058669113 -0.00089425326 -0.0048165633 0.0052923034 -0.008837636 0.0016494894 0.0040110014 -0.0019476962 -0.0045243264 -0.008227694 -0.008287416 0.0071273805 0.0036371017 -0.0003864193 0.009710743 -0.008544138 0.000589273 -0.0004442978 -0.008070466 -0.009099838 0.007188761 -0.0036328936 -0.007901046 0.007952678 -0.006254277 -0.0031218575 0.00177562 -0.003351414 -0.007964718 -0.003921268 -0.009014122 0.0013977576 -0.004628701 -2.008438e-05 0.0027241493 -0.0023730707 0.008818166 0.007042544 -0.00055089 -0.0006350112 0.0008503461 0.0067503285 0.008948386 -0.001927998 -0.0015925551 -0.0029719663 0.0005030441 -0.0064749764 -0.0018674755 -0.0086480975 0.00065804005 0.0014342046 0.0037278486 -0.0028739595 0.005930569 -0.0070778416 0.0098167015 0.00053309917 0.0022955155 0.0043562367 0.0004193616 0.0025956917 0.0016146469 -0.009616957 -0.0031474447 -0.002594576 -0.009262822 0.003435321 0.0047997977 -0.002081518 0.0074176216 -0.0012108183 -0.00027866603 0.0057824347 -0.008473258 -0.006910856 0.0073512103 -0.006582332 0.008467943 0.0053499984 -0.008046315 0.008401108 0.0063182353 -0.0067148064 -0.008462727 -0.008834657 0.003831215 0.006336799 -0.0021347213 0.0013413358 -0.008393619 -0.0051193764
연락 0.004704237 -0.009063847 -0.009237208 0.0010081172 -0.0085848905 -0.006937902 0.004753089 0.008005555 -0.0073591806 0.008106103 0.0093793655 0.0047118976 -0.004407265 0.009670248 -0.007727227 -0.0038907623 0.0019339896 -0.0076315165 -0.009873724 0.002864096 0.0081810905 -0.005113397 -0.004290998 0.0039093564 0.0006926203 -0.008534971 0.0065537454 -0.0031516338 0.003583064 0.0031526613 0.008877898 0.008738623 0.0073114396 -0.008287578 0.0012087608 -0.0009641671 0.00087712525 0.008923397 0.0047696424 -0.008924443 0.009811819 -0.00089119433 0.0003984976 0.004956162 -0.0062149502 -0.0004048443 0.0013757634 0.007051253 0.004280944 -0.0019390512 -0.008467414 -0.0038789606 0.008779056 -0.009491138 0.009846863 -0.00015376807 -0.0011304092 0.009604234 0.009572594 0.0082713915 0.008999088 -0.009984637 0.007504797 -0.009362416 -0.0077125956 -0.008828122 0.0021575831 0.0071821855 -0.006305046 -0.002714305 -0.0023575975 -0.0044777677 -0.0013120151 0.004856005 0.003712654 -0.0032402086 -0.0037125517 -0.0023401594 -0.0032285023 0.003952539 0.009742403 0.007854058 -0.007559664 -0.0064487197 -0.0091319345 -0.0059301043 0.0036352968 -0.006019263 0.0016953301 0.008886542 0.0033359646 0.0011908842 0.00892278 0.0064133313 -0.0014395047 -0.0062111234 -0.0010565401 0.007275796 0.0074805305 -0.0040329886
과대 0.009940562 0.0024018812 0.0051281 -0.0056689666 0.0043790317 0.00025670527 -0.009589527 0.005068009 -0.009009387 -0.0064693643 0.0027868366 0.009282801 -0.002119918 0.0069789435 0.005068066 0.004068234 -0.0061936593 0.0050747897 -0.008307888 -0.0043169237 0.005447445 -0.008146801 0.005729647 -0.0034925556 2.6643276e-05 -0.0073488783 -0.006243157 -0.0033109856 0.008603172 0.005346737 -0.00969743 -0.0065731 0.0034296466 -0.008517154 0.0066547273 0.0061546993 -0.009304213 0.0086505795 0.007841418 -0.0017931056 0.0017818403 -0.005695436 0.006218085 0.007702005 0.004046247 -0.008861506 0.004945648 -0.0030605912 -0.0022071195 0.0061053587 0.0018452979 0.0046271207 -0.006278062 0.0052385093 -0.0035391164 -0.00038360833 0.006221826 0.004076996 0.0074718143 -0.0039174533 0.003548219 0.007308824 -0.0032864308 0.0057587386 -0.009412689 0.0088426 0.0037533618 0.005311134 0.004648409 0.004566953 -0.0033091903 -0.0062102987 -0.0022825336 0.0013853573 -0.002941835 -0.008484526 -0.0062889433 0.008341548 0.009341743 0.005960865 -0.0041033006 0.00069476845 -0.008576207 0.0066570234 0.0004678178 0.0073765875 -0.0053730775 -0.002847178 0.00285897 0.0034598089 -0.0065451073 -0.0073662614 0.002031846 -0.00901062 0.0057885363 0.005469427 -0.0038179446 -0.005641112 -0.008326602 -0.0018966317
지원 0.0069790934 -0.00020951271 -0.007947011 0.008890595 -0.008551636 0.0055598877 0.0064678504 0.0009757781 -0.008692563 0.00617532 -0.007847872 -0.0050177695 0.009624787 -0.008282142 -0.007628553 -0.004900558 0.003463192 0.0019144202 -0.005558517 -0.0032763958 0.008583553 0.009767599 0.009914715 0.0010454941 0.004038 0.0013658523 0.0016727329 0.004838381 0.0022040391 0.0003005433 -0.0031488347 -0.0065247416 0.007989492 -0.0059719635 0.0027833509 -0.00092541694 -0.0036488725 -0.0049413946 0.0032202196 -0.0058576204 -0.007494795 -0.0026441026 0.0046893787 0.006044097 -0.0014566731 0.007298615 -0.007593272 -0.004732773 -0.007860875 -0.0060471105 0.007300818 -0.009280706 -0.008651958 -0.009814539 0.009202812 -0.0026650834 0.0009973454 -0.0061275125 -0.0025342822 7.2565075e-05 -0.0025002433 -0.0073716044 -0.0061929417 0.0025351786 -0.009494338 0.0011462688 -0.001988356 0.008278269 -0.0003978038 0.0062138676 -0.007086835 -0.0075677107 0.0055462597 0.0009397602 -0.0050903247 -0.0026597905 0.008771152 -0.009177432 -0.0036765123 0.001002481 -0.00021608591 0.009513614 -0.001938336 -0.00709533 -0.00767874 -0.009900536 -0.007823649 -0.0060328604 -0.0059469985 -0.0014051843 -0.00054117205 -0.0047152922 0.0021409155 0.0038658713 0.0090301875 -0.004654753 0.005128522 0.0072539425 -0.003756869 -0.007434683
등록금 -0.0033387018 -0.006891975 0.0064954115 0.009387545 0.008272879 -0.008534172 0.0050477698 0.005099995 0.0056287623 -0.008324647 1.7518998e-05 -0.0068251994 -0.008916366 0.0024941873 0.009930207 0.0064967275 -0.007067416 0.0023367167 -0.0039035368 0.0099262595 -0.008801694 0.0097253015 -0.006517699 -0.0070063495 0.0016265225 -0.0006727195 -0.00851412 -0.00061249017 -0.0003583193 -0.0062671616 0.0057468484 0.0031744791 0.008400433 0.0073984577 -0.0066413856 0.0047862935 0.0056937244 0.0057782386 0.005206115 -0.004782095 0.004316015 0.0013179517 6.9856644e-05 -0.0064561605 0.0015231848 0.005264833 -0.009211073 0.008607114 0.0029928016 -3.984928e-05 -0.0033638144 0.00036002637 0.006084268 0.004772687 -0.0059520886 0.007873683 -0.0006383729 -0.008159327 0.008868797 0.0050710584 0.0036271524 0.007909532 -0.007528286 -0.0058308556 -0.002005663 -0.0040983534 -0.0016020107 -0.0005881453 -0.008385045 0.0019008947 0.0025585722 -0.0008413959 0.004869256 0.0014651013 0.0059875203 -0.0022362708 0.008524366 -0.0015649056 0.0030778241 -0.003786993 0.0061295773 0.0030772353 0.0005445671 0.008756795 -0.007837458 0.009714823 0.00078130484 -0.0023544144 -0.0041274764 -0.009104325 -0.002220707 0.0026890803 0.0065783192 0.009070311 -0.0087486 0.009056885 -0.008840022 0.0037327718 0.008027506 -0.0025085735
링크 -0.007855525 -0.0083356 0.001153202 -0.0007618403 -0.009511393 0.0031002855 0.0022554612 0.0044524884 0.0044289804 0.0032336807 -0.009816537 0.005734284 0.0042624543 -0.0077464534 -0.0021214795 0.0003542018 -0.00064135314 -0.00096674205 -0.005541086 2.2916794e-05 0.0044204853 -0.0006808114 0.000800302 0.0020935703 -0.0039747334 -0.007867856 0.009168093 -0.009787052 -0.002477169 -0.0012662936 -0.0076708817 0.0017714214 0.00794352 -0.0015163947 0.008105142 0.00029457093 -0.0057722423 -0.0019822335 -0.0007259321 0.0062550926 0.00712075 0.006203206 -0.005993733 -0.006978793 0.0060925246 0.0024758745 0.005342622 0.0004646516 0.007866531 -0.008879573 0.009872103 -0.0082385205 -0.0017060137 0.0062819887 -0.009231298 0.004318352 -0.006977253 -0.0068436004 0.0023038625 0.001736021 -0.0027882052 0.0078717135 -0.0070170285 0.00046407222 0.008731671 0.002025082 -0.0068524266 0.0035396314 -0.0050300597 0.00058960676 0.0028594304 0.0075861146 0.0073820995 -0.0048940205 0.009520154 -0.0054865195 0.0076262592 -0.007982628 -0.007821259 -0.0011118746 -0.0081429295 -0.003467629 -0.0005142951 -3.7884713e-06 -0.009961548 -0.006506958 -0.0074176504 -0.00038771154 0.005188699 -7.795096e-05 0.009960201 -0.0038866855 0.0080591515 0.0060861516 0.0082620075 0.00010645866 -0.00042989492 0.0018921733 -0.0099256085 0.009044812
보고 -0.0023880578 0.007539096 0.002041738 0.0028994607 -0.0012428021 -0.00989393 0.0013990093 0.0028858448 -0.009805212 -0.003901539 -0.0023483133 -0.0050597144 0.0039592646 0.0021051741 0.0043359827 -0.0064775874 -0.006002877 0.00471884 0.0067790532 0.0055270125 0.0047967792 -0.0072433446 0.008163027 -0.0069606733 -0.007668171 0.008505699 -0.0024709438 -0.009389093 -0.0030838465 0.005962372 -0.002893331 0.004938302 0.000101161 0.0040657567 0.0011849522 -0.009323955 -0.0036499691 0.008836567 0.0015401721 -0.005890634 0.0070143174 0.007456155 0.0072449828 1.4791489e-05 -0.009146137 -0.0034870815 0.005135932 -0.0065033175 0.009743669 -0.009770467 -0.008128903 -0.005314188 0.006018026 -0.007674804 0.008637459 -0.009866875 0.0034941984 0.0032960272 5.4404736e-05 0.009543395 0.0051105833 0.0002883029 0.0048185564 0.006408362 0.0030067516 0.009407751 -0.00133883 -0.00838507 -0.004476042 -0.001491363 -0.0072681354 -0.0015642333 0.007934633 -0.0050246264 0.0051005054 0.0043512867 -0.00069895503 0.0010750556 0.005724819 -0.006641512 0.0038969612 0.008915653 -0.0035137893 -0.007614329 -0.009201701 -0.00900634 0.0038706493 0.0051166867 0.0070392205 -0.0014526057 0.0009684706 0.0030519771 -0.00987829 -0.00941344 0.004589536 -0.008399641 -0.0031776738 -0.004310167 0.005914497 -0.0034456896
건 0.009982214 0.00055624964 -0.0051474785 -0.003637271 0.001257832 -0.0053684115 0.0073942663 0.009023564 0.0042927074 -0.007346046 -0.005946112 5.0554274e-05 -0.0010186648 -0.005526643 0.007935796 0.006237173 -0.004183831 0.0023823476 0.0051312707 0.0024099136 0.008568833 -0.0012911868 -0.0065269945 -0.00083419326 -0.008322713 0.009843702 -0.008616772 -0.0015034461 -0.002849667 0.0031493425 0.004970863 -0.008236573 -0.004408245 0.0004916668 0.0039994265 0.005116429 -0.0013848614 -0.000623014 -0.007825942 0.0045463373 -0.007649441 0.0032852124 -0.0034279441 -0.007802205 0.006883819 -0.0004573655 -0.009545269 -0.009375973 0.0005911231 -0.008181143 0.0037383246 0.003464539 0.0033530975 -0.0056026364 0.007983503 -0.008987202 0.007456882 -0.00063200714 -0.001473198 0.0039642476 -0.0024885107 -0.004396193 -0.0024170566 -0.00618799 -0.0003520131 -0.0053840494 0.004604342 -0.009538221 -0.004351635 -0.009165211 -0.009617131 -0.0007513642 -0.008083727 -0.005692041 0.002775898 -0.0014404035 0.0031046867 0.008265147 -0.00963028 0.0060847662 -0.00794616 0.006534545 0.007468424 0.00858047 -0.007951491 0.0033395386 -0.007842229 -0.0012459111 -0.005220268 -0.008533285 0.0049340604 0.0044341255 -0.0040578507 -0.00777642 0.0035564327 -0.003932269 -0.008868995 -0.0043878295 -0.0021720338 0.008757072
게 -0.006456466 0.0073323892 0.006122913 -0.0049081375 -0.001758852 -0.0025048994 0.0031226445 -0.00045303107 -0.0027636099 -0.009045644 0.0064344313 -0.009615391 -0.008650446 0.0013819766 0.0029734327 4.7421454e-06 0.00037009956 0.0025892712 0.0018025708 0.007568312 -0.003446393 -0.0072333906 -0.00788418 0.007919614 0.0019462728 -0.0058078575 0.0063911914 0.008453579 0.007946606 -0.0068279817 -0.0051414394 -0.0020103382 -0.0066176723 0.0047288225 0.0056644366 -0.0059959223 0.007199256 -0.007656555 0.0062029026 -0.0046253297 0.0019614554 -0.0032713367 0.0033896612 0.00771847 -0.0013945032 -0.004985187 -0.008561652 0.0036374521 0.0042310166 0.006697223 -0.004289763 -0.0097329905 0.0068215155 -0.0045247437 0.00441977 0.008054533 -0.0039428137 0.0016341734 -0.0035891556 -0.006613748 -0.00568434 -0.00013659001 -0.0075132754 -0.0019958066 -0.002487917 0.0067084385 0.0013637447 0.0058521964 0.0038193201 -0.0035164428 -0.005091474 0.009661293 0.007070396 -0.009044233 0.0052457834 0.008193033 0.0091923 -0.00805466 -0.0020131755 0.0010854984 0.0029083753 -0.0016219593 -0.004704926 0.0064684176 0.006932578 -0.00038987875 -0.005843141 -0.0043717623 -0.0051488755 0.0042562988 0.0005137396 -0.002359662 -0.009084906 -0.0014964581 0.006431346 0.006324997 0.0042235423 -0.0028758978 0.009051609 0.00060097454
학기 0.0011347223 0.00617486 -0.006593492 0.0065341974 0.009794316 0.0036727618 0.0034324385 0.004196546 -0.0019464802 -0.008096278 0.001480093 0.0009046054 -0.006797297 0.0019593907 0.005443902 -0.007177913 0.0025119781 0.007766771 -0.008621219 0.003513565 -0.008564608 -0.007937057 0.007091024 -0.0075653982 -0.0013685488 -0.007928683 -0.0078653935 -0.007103605 0.00040596008 0.0017948818 -0.007906521 -0.008049078 -0.003180132 -0.0018244052 -0.0061704637 -0.0042267754 0.0036070584 0.0030711652 0.0065946747 0.0042466833 -0.00088664773 0.0027672006 0.009049987 0.001908176 0.0018196488 0.0011240005 -0.009286897 0.0053519225 0.0050439476 2.553463e-05 0.009212246 -0.0057180882 0.0032491565 -0.007811787 -0.008940565 0.0020009638 0.004744921 0.0061003948 -0.008687585 0.00435307 0.002398505 0.0041559553 -0.0006745219 0.005543709 0.0072916364 -0.008386934 -0.009932266 0.0070149065 -0.00095197203 -0.009374609 -0.0040858863 0.0011912441 0.008426614 -0.0016904592 -0.0010216307 -0.0073646666 -0.007652612 0.0014624643 -0.00047345876 -0.0077002333 0.0008799243 -0.008988475 -0.002477033 0.0042172647 0.0011170149 0.007830689 0.006585374 -0.0011890745 0.0049564554 0.006129241 0.008731773 0.009078524 0.0049281693 0.004611461 0.0071850275 -0.0015663934 -0.005649698 0.0088680675 0.0012105537 -0.0050547267
날 -0.00086848973 -0.0052288244 0.009117343 0.0033977246 0.004281497 0.0065047266 0.008174172 -0.00478091 -0.0063445233 -0.003726437 -0.0037126923 -0.009444294 -0.0006111741 -0.008102533 0.009770613 -0.0034054113 -0.006315577 -0.008104856 -0.0035619903 -0.009554432 0.00078348635 0.0054114056 -0.0028748845 0.007667177 -0.0018744516 -0.0072693443 -0.0031246066 -0.0031405068 -0.007096014 -0.009682438 -0.004066763 -0.0015885544 0.005004165 -0.0076110484 -0.0049743224 0.00136173 -0.0016755295 0.003547709 -0.0018744778 0.0043231724 0.007991717 -0.007913866 0.0037664175 0.005983944 -0.0005768919 0.0067666457 -0.0054164054 -0.004576149 -0.007847841 0.009470949 -0.009406834 -0.0032497025 -0.00043369055 -0.0048489477 0.009472106 -0.0068334625 -0.008018992 0.009244735 -0.00829936 0.009690137 -0.004097631 0.0056672334 -0.0004140091 -0.003996818 -0.0075050234 -0.006273663 0.0068436717 0.0063219117 0.00016444206 0.0063917325 0.0038549781 0.0038341356 0.0026777983 -0.009717429 0.009260885 -0.008204596 -0.0030065537 0.0014260912 0.005247879 -0.009210096 0.0016935586 0.0063584996 -0.008757708 0.00955528 -0.0052177883 0.009551573 -0.006526575 0.0065929224 0.009362592 -0.00922745 0.00029052736 -0.007731168 0.008128646 0.00957799 -0.0060524107 0.00084287405 -0.0022405745 -0.007756331 0.00081950426 -0.009904027
이름 0.0026139712 -0.0076946616 0.0056899665 0.0075719478 -0.0025542832 -0.0040132236 -0.009609621 0.00491858 0.002911098 0.008747325 0.0033002973 -0.0029020072 0.0035580539 0.008627129 0.009232879 0.0076445006 -0.008554098 -0.0075676464 0.0072610737 -0.007443364 0.0032508087 0.008024576 -0.003207016 0.006759243 -0.008154704 0.0064884494 0.005591905 0.0033371067 -0.008124964 0.00916076 0.008228376 -0.0015642261 0.0041074227 0.0063744164 -0.001739726 0.0054875016 -0.004034226 -0.0012750173 -0.0012077689 -0.0041616056 -0.00070821523 -0.0077020596 0.0036433148 0.009058001 0.004781754 0.006383736 -0.004736061 0.004862039 -0.0066827703 -0.0049704886 0.009870905 0.0064021875 -0.0049880384 -0.0060753347 0.0072275903 0.0027058483 0.0065872287 -0.0067573474 -0.0009711766 -0.0009458637 -0.00021973372 0.0022213792 -0.006750994 0.004383075 -0.0027465392 0.008348639 -0.0010315753 0.009156678 -0.00083932636 0.0052109146 -0.007594955 -0.009100654 -0.00034233808 -0.0022590114 0.009968901 0.00452713 -0.0055685304 0.007365103 0.0005903244 -0.009552493 0.0057171895 -0.0020101452 -0.00941968 0.008705731 0.00724838 0.008552344 0.0003629756 0.0076829004 0.0051862285 -0.0069373534 0.009285632 -0.0035596562 -0.009743405 0.008559384 -0.0053077745 0.0083971545 -0.007853358 0.009274013 -0.005914917 0.003998809
사진 0.00978409 0.0042021535 -0.0021270441 -0.0049552466 -0.009720695 0.004206293 0.007435892 -0.0047362233 0.0059209657 0.006840651 -0.009016924 0.0020980525 -0.006839578 -0.0043298863 0.000856843 -0.0070289685 -0.0041387584 -0.0075126146 -0.007027731 -0.0069381404 0.009914329 0.008322913 -0.00018445491 -0.002624848 0.006248617 0.00133919 -0.008993888 -0.007059629 0.0010280252 0.007934225 0.0031984712 0.0098400405 0.0065520857 0.0002949786 0.008651972 0.00899977 0.0080591515 0.009402272 -0.009382622 0.0035131024 -0.007812917 -0.0071413517 -0.008426254 0.003202498 -1.0514259e-05 -0.0063514067 0.0055457377 0.007904219 0.0042972374 0.007832833 -0.0042779446 -0.006389072 0.0039791916 -0.002925539 -0.007175205 0.0036705018 -0.0033224297 -0.005198302 0.0026289702 0.0068538594 0.006401372 0.00014903783 0.008650057 0.0029431654 0.0065681934 -0.00089957 0.0021090244 0.00616375 -0.009793651 0.0058287214 0.0012870121 0.006084757 -0.0014455986 -0.0026966953 -0.0055812 -0.0028463935 -0.0025709795 -0.0051470804 0.0009706283 0.007990415 0.005138378 -0.0076500797 -0.0074191405 -0.0028935408 0.003907163 -0.009318068 0.0061217356 0.0031166505 -0.002821684 0.00919409 0.008061082 0.00071476697 0.004828162 -0.009302871 -0.008788269 -0.002946515 0.009276314 0.003234346 0.0056125904 -0.0067706513
이야기 0.004244654 0.0003942418 -0.00090871094 -0.0032468843 0.004964969 -0.009100075 0.005117242 0.005664797 -0.0024323869 -0.0042004967 -0.0073921587 -0.0063741277 -0.0051071118 0.0031485604 -0.0047958517 -0.0011987113 -0.008923125 -0.0035099054 -0.0007830262 -0.007943585 0.003251338 0.009753892 0.004390235 0.0018677425 -0.004867737 -0.0011340642 0.002243991 0.0017373728 0.008812661 -0.0009337044 0.0069941618 0.0057853553 0.0030407237 0.0073225284 -0.0049439645 -0.0039574956 0.00697531 0.008612566 0.00315485 -0.004095361 0.0076402687 0.0027224899 -0.00022880554 0.008863418 0.0043066167 0.0039514424 -9.162426e-06 -0.0089244 -0.0031200552 0.0024350167 -0.005607803 0.0071219015 0.0074460246 -0.008948369 -0.005382278 -0.005984755 -0.0006573653 -0.0017979312 -0.0020431972 -0.002209046 0.003569653 0.009614756 -0.0045907237 -0.008283212 0.003741572 -0.00646013 0.006685896 0.0026641965 -0.007862444 -0.007755499 -0.009249692 0.0023520803 0.0027388835 0.002620187 0.00017423868 0.0010435843 0.003072989 -0.0015613413 -0.008032918 -0.000622654 0.0037065744 -0.0025938987 -0.0021317697 -0.0022502996 0.007268865 -0.003040421 0.009443572 -0.0038816214 -0.00997181 -0.0065509225 -0.0043728184 0.0012447882 0.005123422 0.002129345 0.009043897 0.0009007215 0.0056338785 0.00016108275 -0.0021171093 0.0062181307
한번 0.0020193076 0.008259695 -0.008297524 -0.00875212 -0.00054095266 -0.001892829 -0.002347741 -0.0005953169 -0.0050706742 -0.00802021 0.008254423 -0.0033411551 -0.002843275 -0.0016452026 -0.0012307597 -0.00918916 -0.0017992663 -0.0013480282 0.008648293 -0.007960443 -0.004749703 -0.0018860555 0.0028854872 -0.006020081 -0.005547457 -0.0079651475 0.005532079 -0.0087170955 -0.003248186 0.00029382945 0.0014490485 -0.009941127 0.008659907 -0.0020553733 0.00035226584 -0.008793197 -0.008167935 0.0037705994 0.00401258 0.0029851748 0.005845773 -0.0069301603 -0.0012457442 -0.002724409 -0.0014065575 0.0044774795 0.0013715744 -0.007439363 0.0032385255 0.006256461 -0.0061026667 0.003229704 -0.004312105 0.008826759 0.004130206 0.002036984 -0.001019392 -0.009108195 0.008654689 -0.0018175126 0.007374895 0.003772235 -0.00825876 -0.00061668636 0.0027457261 -0.0025650286 0.009732382 -0.0049881507 -0.0071646427 0.0037977577 -0.0035697746 -0.006888239 0.0020349098 0.005270841 -0.0054975892 -0.0043804524 -0.00717654 0.0015494394 -0.0047564935 0.008435506 0.0007221794 0.001863296 -0.0033373046 0.0073791887 -0.00066037657 -0.008212488 -0.007342117 0.0002062416 0.0077362633 0.0030871534 -0.0053222324 -0.0067531443 -0.009854483 0.003922987 -0.009518247 0.0031844045 0.0016626811 -0.00082174776 -0.009953123 0.00588423
대해 -8.945703e-05 -0.00993601 -0.0075335596 0.008568809 0.0018905902 -0.008180626 -0.00081863644 0.0054051806 -0.009319038 -0.006874969 -0.0010237098 -0.009764314 0.0004803109 0.0019457818 0.008540478 0.0009839701 0.0013027501 0.00487947 -0.0042912625 0.0072308113 0.00016042232 -0.0006788945 -0.009697697 0.00050635816 0.0067891027 0.0017610216 -0.008090634 -0.0033290554 -0.0060376977 0.0060200524 -0.0064675785 0.0052568982 -0.0052577686 -0.00682451 -0.007585852 0.003811214 -0.008800774 -0.0057102228 -0.007060738 -0.004317038 -0.004034617 0.0014855384 0.0064850785 -0.0011967993 -0.00548717 0.0015578985 0.0056361915 -0.0052720355 -0.0053396034 0.005169892 0.006265855 -0.007770121 0.008212791 -0.009845584 -0.0074171685 -0.0058797286 0.0018146491 5.6021214e-05 0.0034673382 0.0070137763 0.0047925375 -0.0032031513 -0.0064344476 -0.008250101 -0.00048110963 0.009731114 -0.0076742456 0.0036490583 0.0043851137 -0.0043384936 -0.0069657825 -0.0054432796 -0.005037911 -0.006999307 0.005935714 -0.0077688764 -0.0029340936 0.00437942 0.00017988204 -0.00768584 -0.004687803 0.0035920907 0.0025422145 -0.0019574403 -0.00072372676 0.0025495624 0.0014234304 -0.0026439119 0.0053413226 -0.007659254 0.0063669966 -0.009992466 -0.002253945 0.0066825915 -0.0036030912 0.006534374 0.0054321764 -0.007396691 -0.00024279833 -0.0044952272
새내기 -0.008060761 -0.00089184043 0.0063890363 0.008736589 -0.005042393 -0.002657969 -0.0060377787 0.0011617946 0.0026642703 -0.009837792 0.002411685 -0.008813522 0.0003986788 0.0047600605 -0.005256085 0.00025791884 -0.0021824145 -0.008687265 -0.0024099303 0.004456809 -0.008575826 -0.0059372736 -0.0005461478 0.008037414 0.001406138 0.009760814 -0.007670398 0.008991897 -0.004728892 -0.0063556097 -0.007836437 0.0018455934 -0.0027555441 0.0075524617 -0.0005141616 0.0025094724 0.0059603928 -0.0086482195 -0.0020586872 -0.00478127 -0.008669741 0.0034173012 0.0024138116 -0.002402191 -0.0019146538 -0.006730969 -0.0032605957 0.0013105846 0.007738345 0.0070671346 -0.0035937524 0.0036083437 -0.0025793863 -0.0047198846 -0.0036249019 -0.006146641 0.0035013603 -0.0077899764 -0.007508168 -0.0045036604 0.007398262 0.0018272495 0.0054589654 0.008216331 -0.0062347148 -0.0046266676 0.0076803686 0.00494056 0.004661748 0.008992458 0.008812039 -0.0026761247 0.0010394049 0.0054817703 0.008891535 0.009847198 -0.008265052 -0.005125456 0.004990904 0.00095594884 0.0001631856 0.007504299 0.006403289 -0.007237103 -0.0025938845 -0.008483734 0.007044022 0.0027665328 -0.002228613 0.0018797826 0.007663951 0.008131564 0.0061742114 0.0031653093 0.0015491629 0.008139429 0.0013163304 0.00044244766 -0.009553142 0.0025240947
순천향 -0.008458409 0.006465938 -0.005789001 -0.0017497492 0.00097571133 -0.0018810487 -0.0091232415 0.0039836857 -0.006571071 -0.008791465 0.0039116717 -0.0007597375 0.006510582 -0.00701406 0.0007800031 -0.00068637135 0.0057431627 -0.009730661 0.005930355 -0.0089796325 -0.007783694 0.00072776555 -0.0026636957 -0.003892157 -0.0053031826 0.0041107796 -0.009324772 0.0011857295 0.004207883 -0.0002808547 -0.0004973125 0.0071674013 -0.009568315 -0.009012913 0.0044411705 0.008716597 -0.0077953767 -0.00830947 -0.0006421447 -0.00903591 0.0021205782 0.009235347 -0.0061157155 -0.006756551 0.008912508 -0.00075980905 -0.0037440467 -0.002710943 -0.008751238 -0.0046275496 -0.004152932 0.0002486372 0.00069055316 0.0076253987 0.006827028 -0.0015136861 -0.0099773165 0.0025944256 -0.0061124684 0.009107871 0.0038047219 -0.0010059166 0.0066051767 -0.0034930373 -0.0036861014 -0.00033020735 0.008414149 0.0059369826 0.0015718031 0.003769996 -0.002982731 0.009259501 -0.0071316934 -0.0032376694 -0.005300119 0.008723731 -0.0031250548 -0.0023866796 0.007148211 -0.009705806 -0.0029008484 0.0028879023 -0.0062631345 0.008761251 0.0011675144 -0.0052295923 0.0049298764 0.007981527 0.0009282518 0.0068175127 -0.006826265 -0.003618877 0.009936986 0.0056760455 0.0015955901 -0.0034937453 0.0044165375 0.002532475 0.008358219 -1.5807152e-06
성적 0.008596921 -0.0058590295 -0.007605951 -0.0014025879 0.0029744648 -0.0019831157 0.005888176 -0.00841228 -0.009006097 0.0075791953 0.00633564 -0.0040856195 -0.004020293 -0.0035549474 -5.1817893e-05 0.009075048 0.0009518862 -0.0020490456 -0.0034158826 -0.0020868706 -0.0091953585 0.006827521 -0.009032836 -0.0030905819 -0.007119527 0.009061229 0.005791843 -0.00047887804 0.0039187074 -0.002432487 0.009809025 -0.003626752 0.0048595 -0.003794651 0.009550986 0.009497326 0.0062314654 -0.0002481103 -0.0016862464 -0.008656494 0.009334657 -0.008442313 -0.0065561985 0.005581009 -0.002282753 0.007975456 -0.00786721 0.009196544 0.0022511696 -0.008556125 0.0039443877 -0.0049556256 0.0063843774 0.006586745 -0.008761513 0.00646328 0.005260842 0.006483097 -0.0070551396 -0.0065576625 -0.008861843 0.005263078 -0.004018841 0.0047999024 0.004795239 0.00808321 0.0022457242 -0.0010835672 0.0014625835 0.0029795598 -0.008770328 -0.0059730504 -0.00094888924 0.004887512 -0.00016151906 -0.009665208 -0.00062947033 0.007146535 0.006333921 0.003468175 -0.0045987964 -0.00372077 -0.0020783471 -0.0060026217 -0.008597226 -0.0005620241 0.0018025375 0.004829888 0.003589878 0.008554873 -0.006766858 0.0092769675 -0.003341484 0.00081103086 -0.0042617084 -0.0040468215 -0.001487422 -0.0075095464 0.008968365 0.0045595383
비대 -0.0022606207 0.0019148445 0.007814169 -0.005615084 0.0038148523 0.0007054186 0.0028984523 -0.0021371387 -0.009874156 0.0058824276 -0.0014221311 -0.008317623 0.00071287394 -0.0061715986 0.0076775406 -0.0063970066 -0.0016471314 -0.00039515496 -0.0042895866 -0.0034222817 0.0073449705 0.001851697 -0.009377915 -0.00028383732 -0.009531599 -0.003161006 0.0049589085 0.0037001013 -0.005740304 0.0014583874 0.005809884 -0.0074972603 -0.003380425 -0.002465415 -0.008895082 0.0021022677 0.0065082144 0.0024436617 0.002375827 -0.0008080888 -0.00080893276 -0.006269524 -0.00049342634 0.006592853 0.0029706336 0.00054553984 0.007830629 0.0027989412 -0.0074221613 0.0073073385 0.009552731 -0.009081605 0.00722636 -0.007593031 -0.00035892962 0.004610667 -0.0057432842 -0.007954924 -0.007287464 -0.009894049 -0.006667359 0.009553361 0.0029253936 -0.0090641 0.0085058715 0.007213905 0.007860772 0.009610023 -0.008671055 -0.002195618 0.0020967817 0.0024170042 0.0048337127 -0.0077282237 0.004815221 0.009935138 -0.008963814 0.0078939535 0.0032084202 -0.0041587544 -0.0015372873 -0.008512761 -0.0074839187 0.0055174683 -0.003130622 0.009990313 -0.008019698 -0.0070481445 0.0061439537 0.00788114 0.0036862993 0.0072381427 0.006488321 -0.005777092 0.0087034535 -0.00633605 -0.002878468 -0.0059831548 0.0060893465 -0.0043855812
총대 0.003075769 -0.0015842557 -0.0011963272 -0.0058477926 -0.0057677007 -0.0035825658 0.00031732558 0.0014689422 -0.0033027958 0.0019397069 -0.005669532 0.009986289 -0.0008201671 -0.0069489717 -0.0018582535 0.007936342 -0.001100502 -0.0051538683 -0.008046086 -0.0058696987 -0.0031964493 0.007720239 -0.0072237346 0.0014400983 -7.6265336e-05 0.0039387345 -0.0079444675 0.007950477 -0.0027889276 0.0052995994 -0.0095066335 0.0050889254 -0.008248977 -0.0032517791 -0.0011872792 -0.003642206 -0.00073236943 2.3472308e-05 0.0045096828 -0.0022412944 -0.0040084813 -0.006172981 0.008324328 0.0046128607 0.009101684 0.0054835365 -0.0046111774 0.008278715 -0.0069585918 0.003044355 -0.0033556437 0.00026778935 0.0037600899 -0.0028218054 -0.004420328 -0.0019492912 0.00052037 0.006455059 -0.005855217 0.0046665263 -0.0037091111 -0.007946053 -0.005604844 0.0018558884 0.00878845 0.007873711 0.009176957 0.006889963 -0.0029662393 -0.0024210883 0.00881573 0.006481156 0.006012387 0.006879928 0.0016215014 0.0023945929 -0.008207314 0.00753669 0.0094442675 -0.0070817186 0.0011635136 0.008741148 0.0036550332 0.0069505833 0.0076295948 -0.0019184542 0.00886342 0.005986605 -0.0018971396 6.146431e-05 0.009707735 0.0058213235 -0.006685798 -0.0034905458 -0.0034888983 0.0031212235 0.0011050344 -0.008603022 0.0021710205 0.009618771
학생회 0.0023558068 0.0042842412 0.0019622492 0.008119519 0.008877659 0.0031601144 -0.0024387622 0.0036050272 -0.007714701 0.008015457 -0.0040081334 0.009921636 -0.009588582 -0.0025598502 0.008886406 -0.004077053 -0.0019587136 0.0050348663 0.009285183 -0.00036540985 -0.0067989468 0.009990067 -0.00952584 0.0012456155 0.0055658794 -0.007831783 -0.005631535 -0.009120781 -7.175923e-05 0.005002358 -0.008225551 -0.003081405 0.008390055 -0.00446141 0.0031752682 0.0035147404 -0.003576603 -0.0051736357 0.008324935 -0.0025188231 0.008960965 -0.0024186682 0.0030502535 0.005595677 0.0005636382 0.004395001 -0.0059633995 0.008413565 -0.0016444755 -0.0044152453 0.005110202 0.009922147 -0.00566102 0.0008399558 0.004336934 -0.0027499462 0.0006399131 0.008822365 0.00772181 -0.006456816 -0.0032067418 0.009218149 -0.00031924486 -0.009561476 -0.0007172036 -0.006807697 0.0009260297 0.00082047225 -0.004397595 -0.004588721 0.008796282 0.0045839595 0.0025760746 0.0018444466 0.008229366 -0.004993937 0.0061039208 -0.000986104 -0.0076568867 -0.009695223 -0.0016761756 0.008117283 0.0022067286 -0.008978457 0.0012235641 -0.0036245084 -0.004058254 0.008129869 0.005822582 0.00036031962 0.0024504375 0.0009006977 -0.009922688 0.0029905557 0.007183068 0.0039889193 0.0024717283 -0.0035476827 0.0023403 -0.00763262
해 0.004213252 0.0023962092 -0.00040929555 -0.00059812306 0.002633407 0.0022231054 0.0014790845 0.009130979 0.0035320378 0.0013929605 -0.0029337765 -0.0060691857 -0.009312978 -0.003260126 0.0043493845 0.007575405 0.0006356168 -0.0047804285 0.0035994148 -0.0039000798 -0.0007594013 0.008863539 0.0081677055 -0.00041843415 -0.005910628 0.0036931897 0.009812188 0.008669335 -0.0019080377 0.0071480726 0.009270792 -0.009558499 0.008885548 2.2158623e-05 -0.0051955604 0.003679719 0.008964584 -0.007241638 0.006871016 -0.0064289547 -0.007785163 0.0055052876 -0.004572079 0.0047625923 0.007368748 0.0096525075 0.005711229 -0.0088655045 0.003243127 -0.008990169 -0.00036827088 0.009781914 -0.0051139877 0.0040978957 -0.0057326173 -0.008047242 0.008015272 0.0032451367 0.0073767235 0.0029330992 0.0011639595 0.003722539 -0.0084222965 0.006591761 -0.0044854735 0.0046109916 -0.005462816 0.0010415888 0.004018984 -0.0024803805 -0.0075305174 -0.00603642 -0.009940198 0.009684121 -0.0043904996 -0.0010553598 -0.009022119 -0.004574661 -0.004887772 0.0030174041 0.005655599 0.0034995938 0.009856799 0.0018948412 0.009875977 0.0075551225 0.0027633167 0.0021439837 -0.0075138807 -0.0023621963 0.0056402804 -0.008137772 0.0022612214 -0.0075862575 0.009648659 -0.00012429715 0.00091484305 -0.004778161 0.006118312 -0.007126498
위 -0.007410362 0.0066182567 -0.0033724117 -0.00091466424 0.005359087 0.0045699333 0.0062081125 0.0070277117 0.005616398 -0.008918831 0.005144527 0.009125321 -0.004006362 0.0010816002 -0.0032792091 -0.0034029437 0.008693296 -0.00027982713 0.0034074616 -0.0055328486 0.0057739685 -0.0033548998 -0.0049688267 0.002191868 0.0097215315 -0.006131165 0.0035739136 -0.0009928012 -0.0071910145 -0.0043305634 -0.008219323 0.005589943 -0.0027526976 -0.0051993635 0.0009980154 0.00458894 0.009498107 -0.009735213 -0.0002757597 -0.001229682 -0.0027000736 -0.000530026 0.008129928 -0.0018766213 0.009334333 0.0003780532 -0.001064632 0.0069045997 0.006942637 0.00045891522 -0.00030289413 0.0063429163 -0.0038443613 0.0045933365 -8.5022446e-05 -0.0060780407 0.006443784 -0.0040332745 0.0022166444 -0.0068458915 0.0026867485 0.0055761384 0.0051115416 -0.008073871 -0.005907736 0.007128725 0.0031156016 0.0010988164 -0.0061874557 -0.0013832616 -0.009224624 0.0012573266 -0.004568696 0.00075523136 0.0044853734 0.002391591 -0.0071189855 0.0008507061 -0.00671993 -0.0038795162 0.0018995834 0.0079723075 -0.0065113925 0.0023363018 0.008144178 0.009908817 0.0061665964 -0.007388673 0.0038613058 0.008827792 0.00414773 0.0025157356 -0.0015901184 0.0035783362 0.0041533946 0.008824277 -0.003811283 -0.008750725 0.0065029026 -0.006219413
노력 -0.0006043768 0.0014134574 -0.0011889315 -0.0040426757 0.0008613324 -0.009671204 0.0013963389 -0.004175024 -0.0057943105 0.003812449 0.0014539004 0.0036494946 0.00089772226 -0.009513054 0.009981007 -0.0035324574 -0.0021929191 0.0071417904 8.0580714e-05 0.0030549478 0.0022580195 0.0023836088 0.0067622783 0.009475465 -0.00055919646 -0.003426466 0.004556775 -0.008335233 0.008468733 0.0024005508 0.0059993956 0.00280267 -0.0013284922 0.0009618163 -0.004795594 0.00908803 0.0050321245 0.0036097288 -0.0050093364 -0.008643961 0.007935111 0.0029527927 -0.004249008 -0.0086702565 -0.0039636875 0.0014086413 -0.009189772 5.3317548e-05 0.002800417 -0.009942255 -0.00014772177 -0.006069651 -0.003607633 -0.0016291213 -0.009976812 -0.0036126303 -0.0070231464 -0.007341566 0.0015920735 0.0023366762 0.009287696 0.0088647725 -0.0064154505 -0.009217915 0.007890587 0.0054128408 0.0069307135 -0.002939887 -0.005229166 -0.004568062 -0.0083339885 0.005876255 -0.0034557318 0.008633831 -0.005684266 0.009632048 -0.004502096 0.008662968 -0.0054094074 -0.0075085093 0.0076617026 -0.009774122 -0.008781557 0.004951205 -0.009752202 0.005281136 0.0036526965 -0.00701998 0.0031476545 0.0014540291 0.008642168 0.0028818608 -0.0051225997 -0.0023510528 0.006850066 -0.0066184546 0.009294922 -0.003202002 -0.004648788 -0.0043676733
시작 0.0030829478 -0.009846418 0.0032218862 -0.0044857576 0.009667887 -0.005027282 -0.008013177 0.0035127616 0.008966634 0.0027474498 -0.0022681498 0.0035124945 -0.008921006 -0.0041403747 -0.004387109 0.0018914747 -0.006308098 -0.0075912215 -0.0065308143 0.0052906536 0.0027480507 0.008798854 0.0023208952 0.0053017186 0.0043373536 0.0046274303 -0.004956801 0.0014354181 0.00029520036 0.005250759 -0.006605606 -0.00071721314 0.004017589 -0.0048484993 -0.008508453 0.0055731153 -0.000857296 0.00034011842 -0.006073799 0.008503241 0.00090254546 0.0017341399 -0.00039458275 0.0006798887 0.0057906057 -0.009223921 0.0023491145 -0.00557719 0.009447813 0.0043732263 -0.0055047367 -0.0012223816 -0.005543177 0.008514111 0.0090870075 0.0023037363 0.009645546 -0.0047216867 0.0028122854 -0.0050981306 -0.008773463 -0.0041693784 -0.0013827443 -0.0056579616 -0.0045454954 0.00063224795 -0.00012678624 -0.008307865 0.0069259596 0.0015681816 -0.009503091 -0.0014206385 -0.0075996993 0.007576685 -0.0010469413 0.007814936 0.0050266148 -0.0040569543 -0.009068694 -0.0061839866 0.008882 -0.0015603352 -0.00030631066 0.00012656212 -0.008243923 0.0042195655 -0.008206623 0.0094145015 -0.008122337 0.007899611 -0.0019803739 -0.002062006 -0.0022875643 0.0009816075 0.0024560667 0.0016227913 -0.00058635 0.0075821495 -0.0064282394 -0.007888825
비 -0.007191 0.006314621 -0.0019803024 -0.004748359 0.004949503 -0.007849999 0.0029036808 0.009603161 0.0069305827 -0.0030540347 0.0024092244 0.004956913 0.009600057 -0.0027315712 0.0013284922 -0.004186449 -0.0031668781 0.0008664203 0.0021986747 -0.0053410674 0.0042374255 -0.005111518 -0.0045954227 -0.008982759 0.0076544737 0.004292271 -0.002195797 0.008427112 0.0019700122 -0.009901218 -0.0077599194 -0.0042331363 -0.007285063 0.0073961616 0.0050639655 0.002019222 -0.00064344646 -0.007428553 0.0061254813 -0.005192094 -0.0026895166 -0.0058510494 -0.002176919 -0.009323048 0.0032816506 -0.0074280836 0.0067563583 -0.0074581956 -0.005887444 7.595062e-05 -0.0079560755 0.005364945 -0.0042332504 0.0003821373 0.007809811 0.0031247903 -0.0001888156 0.00767427 -0.0001456213 0.0056164907 0.005986378 -0.008004815 0.0019234157 -0.009462962 -0.0013966584 0.008596992 -0.002464912 -0.004784422 0.0027934432 0.0072649596 0.0065772817 -0.0065101124 0.007027409 0.007586603 -0.0053651165 -0.0011936355 -0.00059459923 -0.009421749 -0.0023824954 0.009780633 -0.002603569 -0.0076625706 -0.0042716884 -0.009527165 0.0020009733 0.0060172463 0.0007397747 -0.0034776689 0.009474025 -0.009366143 -0.0045604254 -0.00975723 0.009588747 -0.0018582105 -0.0053436253 -0.007892485 0.008207662 -0.0029566146 -0.0058085416 0.0037300372
